{"learner":{"attributes":{"scikit_learn":"{\"_estimator_type\": \"classifier\"}"},"feature_names":["age","sex","cp","trestbps","chol","fbs","restecg","thalach","exang","oldpeak","slope","ca","thal"],"feature_types":["int","int","int","int","int","int","int","int","int","float","int","int","int"],"gradient_booster":{"model":{"gbtree_model_param":{"num_parallel_tree":"1","num_trees":"100"},"iteration_indptr":[0,1,2,3,4,5,6,7,8,9,10,11,12,13,14,15,16,17,18,19,20,21,22,23,24,25,26,27,28,29,30,31,32,33,34,35,36,37,38,39,40,41,42,43,44,45,46,47,48,49,50,51,52,53,54,55,56,57,58,59,60,61,62,63,64,65,66,67,68,69,70,71,72,73,74,75,76,77,78,79,80,81,82,83,84,85,86,87,88,89,90,91,92,93,94,95,96,97,98,99,100],"tree_info":[0,0,0,0,0,0,0,0,0,0,0,0,0,0,0,0,0,0,0,0,0,0,0,0,0,0,0,0,0,0,0,0,0,0,0,0,0,0,0,0,0,0,0,0,0,0,0,0,0,0,0,0,0,0,0,0,0,0,0,0,0,0,0,0,0,0,0,0,0,0,0,0,0,0,0,0,0,0,0,0,0,0,0,0,0,0,0,0,0,0,0,0,0,0,0,0,0,0,0,0],"trees":[{"base_weights":[6.9255602E-6,-1.0464505E0,9.827458E-1,-3.133461E-2,-1.7853632E0,1.4438537E0,2.7908403E-1,8.889473E-1,-1.2526832E0,-5.331142E-1,-1.8439695E0,1.5415375E0,-2.6021192E-2,1.4220558E0,-4.208875E-1,1.4139502E0,-9.071465E-2,3.1137515E-2,-3.7688527E-2,7.475415E-3,-2.4533836E-2,-3.8726747E-2,-1.1976858E0,2.4694079E-1,1.720277E0,5.2333957E-1,3.5735887E-2,2.4443814E-1,-1.418394E0,1.6318486E0,-1.3824761E-2,-1.2355926E0,9.2062664E-1,-2.7260695E-2,8.219289E-1,2.3480041E-2,-3.5783254E-2,8.198567E-1,-2.6021192E-2,3.539944E-2,-5.268981E-4,2.9927915E-2,-2.0591885E-2,7.1807456E-1,-3.0669512E-2,-1.5401736E0,-4.9334923E-3,3.6293056E-2,-5.268981E-4,-4.9334923E-3,-2.9987726E-2,2.9927915E-2,-8.529211E-3,2.7953967E-2,-4.1963197E-3,-3.3116369E-3,2.9927915E-2,2.5897391E-2,-3.8213274E-3,-3.6084082E-2,-5.268981E-4],"categories":[],"categories_nodes":[],"categories_segments":[],"categories_sizes":[],"default_left":[0,0,0,0,0,0,0,0,0,0,0,0,0,0,0,0,0,0,0,0,0,0,0,0,0,0,0,0,0,0,0,0,0,0,0,0,0,0,0,0,0,0,0,0,0,0,0,0,0,0,0,0,0,0,0,0,0,0,0,0,0],"id":0,"left_children":[1,3,5,7,9,11,13,15,17,19,21,23,-1,25,27,29,31,33,-1,-1,-1,-1,35,37,39,41,-1,43,45,47,-1,49,51,-1,53,-1,-1,55,-1,-1,-1,-1,-1,57,-1,59,-1,-1,-1,-1,-1,-1,-1,-1,-1,-1,-1,-1,-1,-1,-1],"loss_changes":[2.1277608E2,7.510393E1,3.4217056E1,4.9703045E1,3.2715302E0,1.9225052E1,3.5384224E1,1.3108974E1,1.5461504E1,2.9735734E0,9.626007E-1,1.4030548E1,0E0,4.5530014E0,1.8754908E1,8.693401E0,1.2421797E1,9.110119E0,0E0,0E0,0E0,0E0,1.542132E1,8.82352E0,4.7966003E0,1.0981184E1,0E0,1.5830939E1,1.2246532E0,4.6683846E0,0E0,9.339881E-1,5.096144E0,0E0,3.4107914E0,0E0,0E0,4.912663E0,0E0,0E0,0E0,0E0,0E0,7.8476224E0,0E0,3.9477005E0,0E0,0E0,0E0,0E0,0E0,0E0,0E0,0E0,0E0,0E0,0E0,0E0,0E0,0E0,0E0],"parents":[2147483647,0,0,1,1,2,2,3,3,4,4,5,5,6,6,7,7,8,8,9,9,10,10,11,11,13,13,14,14,15,15,16,16,17,17,22,22,23,23,24,24,25,25,27,27,28,28,29,29,31,31,32,32,34,34,37,37,43,43,45,45],"right_children":[2,4,6,8,10,12,14,16,18,20,22,24,-1,26,28,30,32,34,-1,-1,-1,-1,36,38,40,42,-1,44,46,48,-1,50,52,-1,54,-1,-1,56,-1,-1,-1,-1,-1,58,-1,60,-1,-1,-1,-1,-1,-1,-1,-1,-1,-1,-1,-1,-1,-1,-1],"split_conditions":[1E0,1E0,5.7E1,3E0,1.1E2,3.6E0,1E0,1E0,6E-1,1.48E2,3.02E2,1.43E2,-2.6021192E-2,6.3E1,2.46E2,3.04E2,1.45E2,4.2E1,-3.7688527E-2,7.475415E-3,-2.4533836E-2,-3.8726747E-2,3.04E2,2E0,1.95E2,1E0,3.5735887E-2,2.4E0,1.72E2,6.7E1,-1.3824761E-2,1.22E2,7E-1,-2.7260695E-2,2.27E2,2.3480041E-2,-3.5783254E-2,2E0,-2.6021192E-2,3.539944E-2,-5.268981E-4,2.9927915E-2,-2.0591885E-2,1E0,-3.0669512E-2,6.7E1,-4.9334923E-3,3.6293056E-2,-5.268981E-4,-4.9334923E-3,-2.9987726E-2,2.9927915E-2,-8.529211E-3,2.7953967E-2,-4.1963197E-3,-3.3116369E-3,2.9927915E-2,2.5897391E-2,-3.8213274E-3,-3.6084082E-2,-5.268981E-4],"split_indices":[2,11,0,12,3,9,1,8,9,7,4,7,0,0,4,4,7,0,0,0,0,0,4,11,7,11,0,9,3,0,0,3,9,0,4,0,0,10,0,0,0,0,0,11,0,0,0,0,0,0,0,0,0,0,0,0,0,0,0,0,0],"split_type":[0,0,0,0,0,0,0,0,0,0,0,0,0,0,0,0,0,0,0,0,0,0,0,0,0,0,0,0,0,0,0,0,0,0,0,0,0,0,0,0,0,0,0,0,0,0,0,0,0,0,0,0,0,0,0,0,0,0,0,0,0],"sum_hessian":[2.0490125E2,9.920219E1,1.0569906E2,4.222965E1,5.697254E1,6.3219532E1,4.2479527E1,2.4238317E1,1.799133E1,2.9985547E0,5.3973988E1,6.1470375E1,1.749157E0,1.5742413E1,2.6737114E1,1.5492534E1,8.745785E0,6.2469893E0,1.174434E1,1.4992774E0,1.4992774E0,4.547808E1,8.495905E0,7.746267E0,5.3724106E1,5.247471E0,1.0494942E1,1.6492052E1,1.0245062E1,1.4243135E1,1.2493979E0,3.998073E0,4.7477117E0,1.9990366E0,4.2479525E0,1.4992774E0,6.996628E0,5.9971094E0,1.749157E0,5.222483E1,1.4992774E0,3.2484343E0,1.9990366E0,1.3493497E1,2.9985547E0,8.995665E0,1.2493979E0,1.2743858E1,1.4992774E0,1.2493979E0,2.7486753E0,3.2484343E0,1.4992774E0,2.4987957E0,1.749157E0,2.7486753E0,3.2484343E0,7.996146E0,5.4973507E0,7.496387E0,1.4992774E0],"tree_param":{"num_deleted":"0","num_feature":"13","num_nodes":"61","size_leaf_vector":"1"}},{"base_weights":[-4.5000133E-4,-1.0263797E0,9.637984E-1,-3.1463098E-2,-1.750089E0,1.416421E0,2.734847E-1,8.720418E-1,-1.2294979E0,-5.2667433E-1,-1.8072219E0,1.5127146E0,-2.5683425E-2,1.3974677E0,-4.1427833E-1,1.3881942E0,-9.02935E-2,3.0041171E-2,-3.6977608E-2,7.3865247E-3,-2.4233783E-2,-3.7951E-2,-1.1747375E0,2.4213007E-1,1.6882797E0,5.145532E-1,3.5119027E-2,2.3911998E-1,-1.3932623E0,1.6030792E0,-1.36692235E-2,-1.2175419E0,9.0635496E-1,-2.6889794E-2,8.1031066E-1,2.320751E-2,-3.5142597E-2,8.075769E-1,-2.5683425E-2,1.7371114E0,-5.2057265E-4,2.9490279E-2,-2.0312633E-2,7.05506E-1,-3.0199485E-2,-1.5124931E0,-4.878407E-3,3.5657544E-2,-5.2057265E-4,-4.878407E-3,-2.9538462E-2,2.9490279E-2,-8.426016E-3,2.7570747E-2,-4.1426877E-3,-3.2629026E-3,2.9490279E-2,2.3878366E-2,3.627127E-2,2.5453819E-2,-3.7564046E-3,-3.5432566E-2,-5.2057265E-4],"categories":[],"categories_nodes":[],"categories_segments":[],"categories_sizes":[],"default_left":[0,0,0,0,0,0,0,0,0,0,0,0,0,0,0,0,0,0,0,0,0,0,0,0,0,0,0,0,0,0,0,0,0,0,0,0,0,0,0,0,0,0,0,0,0,0,0,0,0,0,0,0,0,0,0,0,0,0,0,0,0,0,0],"id":1,"left_children":[1,3,5,7,9,11,13,15,17,19,21,23,-1,25,27,29,31,33,-1,-1,-1,-1,35,37,39,41,-1,43,45,47,-1,49,51,-1,53,-1,-1,55,-1,57,-1,-1,-1,59,-1,61,-1,-1,-1,-1,-1,-1,-1,-1,-1,-1,-1,-1,-1,-1,-1,-1,-1],"loss_changes":[2.0461896E2,7.210323E1,3.2928307E1,4.7853592E1,3.1019745E0,1.8627747E1,3.4179096E1,1.2653915E1,1.4874884E1,2.9019094E0,9.129791E-1,1.3513382E1,0E0,4.3912697E0,1.8075348E1,8.431351E0,1.2051181E1,8.860765E0,0E0,0E0,0E0,0E0,1.4956004E1,8.58377E0,4.6215515E0,1.0671398E1,0E0,1.5331125E1,1.1725636E0,4.5070915E0,0E0,9.0229034E-1,4.954861E0,0E0,3.3185117E0,0E0,0E0,4.768836E0,0E0,4.272461E-2,0E0,0E0,0E0,7.579863E0,0E0,3.805523E0,0E0,0E0,0E0,0E0,0E0,0E0,0E0,0E0,0E0,0E0,0E0,0E0,0E0,0E0,0E0,0E0,0E0],"parents":[2147483647,0,0,1,1,2,2,3,3,4,4,5,5,6,6,7,7,8,8,9,9,10,10,11,11,13,13,14,14,15,15,16,16,17,17,22,22,23,23,24,24,25,25,27,27,28,28,29,29,31,31,32,32,34,34,37,37,39,39,43,43,45,45],"right_children":[2,4,6,8,10,12,14,16,18,20,22,24,-1,26,28,30,32,34,-1,-1,-1,-1,36,38,40,42,-1,44,46,48,-1,50,52,-1,54,-1,-1,56,-1,58,-1,-1,-1,60,-1,62,-1,-1,-1,-1,-1,-1,-1,-1,-1,-1,-1,-1,-1,-1,-1,-1,-1],"split_conditions":[1E0,1E0,5.7E1,3E0,1.1E2,3.6E0,1E0,1E0,6E-1,1.48E2,3.02E2,1.43E2,-2.5683425E-2,6.3E1,2.46E2,3.04E2,1.45E2,4.2E1,-3.6977608E-2,7.3865247E-3,-2.4233783E-2,-3.7951E-2,3.04E2,2E0,1.95E2,1E0,3.5119027E-2,2.4E0,1.72E2,6.7E1,-1.36692235E-2,1.22E2,7E-1,-2.6889794E-2,2.27E2,2.320751E-2,-3.5142597E-2,2E0,-2.5683425E-2,1.12E2,-5.2057265E-4,2.9490279E-2,-2.0312633E-2,1E0,-3.0199485E-2,6.7E1,-4.878407E-3,3.5657544E-2,-5.2057265E-4,-4.878407E-3,-2.9538462E-2,2.9490279E-2,-8.426016E-3,2.7570747E-2,-4.1426877E-3,-3.2629026E-3,2.9490279E-2,2.3878366E-2,3.627127E-2,2.5453819E-2,-3.7564046E-3,-3.5432566E-2,-5.2057265E-4],"split_indices":[2,11,0,12,3,9,1,8,9,7,4,7,0,0,4,4,7,0,0,0,0,0,4,11,7,11,0,9,3,0,0,3,9,0,4,0,0,10,0,3,0,0,0,11,0,0,0,0,0,0,0,0,0,0,0,0,0,0,0,0,0,0,0],"split_type":[0,0,0,0,0,0,0,0,0,0,0,0,0,0,0,0,0,0,0,0,0,0,0,0,0,0,0,0,0,0,0,0,0,0,0,0,0,0,0,0,0,0,0,0,0,0,0,0,0,0,0,0,0,0,0,0,0,0,0,0,0,0,0],"sum_hessian":[2.0484232E2,9.9215614E1,1.056267E2,4.221887E1,5.699675E1,6.3161396E1,4.24653E1,2.4223032E1,1.7995834E1,2.99887E0,5.399788E1,6.1411533E1,1.7498602E0,1.5728673E1,2.673663E1,1.5478534E1,8.744498E0,6.2459474E0,1.17498865E1,1.4990106E0,1.4998593E0,4.5499695E1,8.498183E0,7.7443027E0,5.3667233E1,5.2453036E0,1.0483369E1,1.6487925E1,1.0248706E1,1.4228817E1,1.2497174E0,3.9993925E0,4.745106E0,1.9998615E0,4.246086E0,1.4982986E0,6.9998846E0,5.9944425E0,1.7498602E0,5.216794E1,1.4992946E0,3.2455752E0,1.9997283E0,1.3488056E1,2.9998689E0,8.99918E0,1.2495255E0,1.2729522E1,1.4992946E0,1.2495255E0,2.749867E0,3.2455752E0,1.4995309E0,2.4967756E0,1.7493104E0,2.7488675E0,3.2455752E0,8.48665E0,4.3681286E1,7.990264E0,5.497792E0,7.4998856E0,1.4992946E0],"tree_param":{"num_deleted":"0","num_feature":"13","num_nodes":"63","size_leaf_vector":"1"}},{"base_weights":[-7.686779E-4,-1.0072991E0,9.45892E-1,-3.159417E-2,-1.7166724E0,1.3906062E0,2.681013E-1,8.5582066E-1,-1.2073784E0,-5.2037543E-1,-1.7724521E0,1.4855957E0,-2.5355492E-2,1.3739805E0,-4.0790415E-1,1.3635757E0,-8.9887954E-2,2.897911E-2,-3.6303688E-2,7.298808E-3,-2.3941703E-2,-3.721789E-2,-1.1528058E0,2.3746394E-1,1.6582478E0,5.0606304E-1,3.453204E-2,2.3396543E-1,-1.3691722E0,1.5756454E0,-1.3516151E-2,-1.2000564E0,8.9253193E-1,-2.6530495E-2,7.990052E-1,2.2941863E-2,-3.4532633E-2,7.956453E-1,-2.5355492E-2,1.7062966E0,-5.143247E-4,2.906866E-2,-2.0040004E-2,6.932829E-1,-2.9747114E-2,-1.4860328E0,-4.823972E-3,3.505358E-2,-5.143247E-4,-4.823972E-3,-2.9105494E-2,2.906866E-2,-8.324253E-3,2.7200146E-2,-4.0897666E-3,-3.2149022E-3,2.906866E-2,2.347421E-2,3.56241E-2,2.5024928E-2,-3.6926111E-3,-3.4812696E-2,-5.143247E-4],"categories":[],"categories_nodes":[],"categories_segments":[],"categories_sizes":[],"default_left":[0,0,0,0,0,0,0,0,0,0,0,0,0,0,0,0,0,0,0,0,0,0,0,0,0,0,0,0,0,0,0,0,0,0,0,0,0,0,0,0,0,0,0,0,0,0,0,0,0,0,0,0,0,0,0,0,0,0,0,0,0,0,0],"id":2,"left_children":[1,3,5,7,9,11,13,15,17,19,21,23,-1,25,27,29,31,33,-1,-1,-1,-1,35,37,39,41,-1,43,45,47,-1,49,51,-1,53,-1,-1,55,-1,57,-1,-1,-1,59,-1,61,-1,-1,-1,-1,-1,-1,-1,-1,-1,-1,-1,-1,-1,-1,-1,-1,-1],"loss_changes":[1.9692886E2,6.927709E1,3.17304E1,4.6095524E1,2.9467468E0,1.8062569E1,3.3031013E1,1.2221912E1,1.4323269E1,2.8324912E0,8.6802673E-1,1.3036011E1,0E0,4.2393017E0,1.7428368E1,8.182146E0,1.1694623E1,8.620186E0,0E0,0E0,0E0,0E0,1.4512409E1,8.352314E0,4.460144E0,1.0373301E1,0E0,1.4851301E1,1.1241722E0,4.3560715E0,0E0,8.724494E-1,4.8193197E0,0E0,3.2298717E0,0E0,0E0,4.6312957E0,0E0,2.709961E-2,0E0,0E0,0E0,7.323989E0,0E0,3.6724472E0,0E0,0E0,0E0,0E0,0E0,0E0,0E0,0E0,0E0,0E0,0E0,0E0,0E0,0E0,0E0,0E0,0E0],"parents":[2147483647,0,0,1,1,2,2,3,3,4,4,5,5,6,6,7,7,8,8,9,9,10,10,11,11,13,13,14,14,15,15,16,16,17,17,22,22,23,23,24,24,25,25,27,27,28,28,29,29,31,31,32,32,34,34,37,37,39,39,43,43,45,45],"right_children":[2,4,6,8,10,12,14,16,18,20,22,24,-1,26,28,30,32,34,-1,-1,-1,-1,36,38,40,42,-1,44,46,48,-1,50,52,-1,54,-1,-1,56,-1,58,-1,-1,-1,60,-1,62,-1,-1,-1,-1,-1,-1,-1,-1,-1,-1,-1,-1,-1,-1,-1,-1,-1],"split_conditions":[1E0,1E0,5.7E1,3E0,1.1E2,3.6E0,1E0,1E0,6E-1,1.48E2,3.02E2,1.43E2,-2.5355492E-2,6.3E1,2.46E2,3.04E2,1.45E2,4.2E1,-3.6303688E-2,7.298808E-3,-2.3941703E-2,-3.721789E-2,3.04E2,2E0,1.95E2,1E0,3.453204E-2,2.4E0,1.72E2,6.7E1,-1.3516151E-2,1.22E2,7E-1,-2.6530495E-2,2.27E2,2.2941863E-2,-3.4532633E-2,2E0,-2.5355492E-2,1.12E2,-5.143247E-4,2.906866E-2,-2.0040004E-2,1E0,-2.9747114E-2,6.7E1,-4.823972E-3,3.505358E-2,-5.143247E-4,-4.823972E-3,-2.9105494E-2,2.906866E-2,-8.324253E-3,2.7200146E-2,-4.0897666E-3,-3.2149022E-3,2.906866E-2,2.347421E-2,3.56241E-2,2.5024928E-2,-3.6926111E-3,-3.4812696E-2,-5.143247E-4],"split_indices":[2,11,0,12,3,9,1,8,9,7,4,7,0,0,4,4,7,0,0,0,0,0,4,11,7,11,0,9,3,0,0,3,9,0,4,0,0,10,0,3,0,0,0,11,0,0,0,0,0,0,0,0,0,0,0,0,0,0,0,0,0,0,0],"split_type":[0,0,0,0,0,0,0,0,0,0,0,0,0,0,0,0,0,0,0,0,0,0,0,0,0,0,0,0,0,0,0,0,0,0,0,0,0,0,0,0,0,0,0,0,0,0,0,0,0,0,0,0,0,0,0,0,0,0,0,0,0,0,0],"sum_hessian":[2.0467516E2,9.9169655E1,1.055055E2,4.2187527E1,5.698213E1,6.307129E1,4.243421E1,2.4197079E1,1.7990446E1,2.9986968E0,5.3983433E1,6.1321316E1,1.7499734E0,1.5706843E1,2.672737E1,1.545654E1,8.740539E0,6.2432256E0,1.1747221E1,1.4987057E0,1.4999912E0,4.548778E1,8.495649E0,7.7403574E0,5.358096E1,5.2413373E0,1.0465507E1,1.647985E1,1.0247519E1,1.4206625E1,1.2499158E0,3.999469E0,4.74107E0,1.9999474E0,4.2432785E0,1.4969268E0,6.9987226E0,5.990384E0,1.7499734E0,5.2081646E1,1.4993114E0,3.2413418E0,1.9999955E0,1.3480067E1,2.9997842E0,8.997881E0,1.2496369E0,1.2707314E1,1.4993114E0,1.2496369E0,2.7498322E0,3.2413418E0,1.4997277E0,2.4938316E0,1.7494467E0,2.7490423E0,3.2413418E0,8.477417E0,4.360423E1,7.9818807E0,5.498186E0,7.49857E0,1.4993114E0],"tree_param":{"num_deleted":"0","num_feature":"13","num_nodes":"63","size_leaf_vector":"1"}},{"base_weights":[-1.0780366E-3,-9.891354E-1,9.2873234E-1,-3.172773E-2,-1.6849694E0,1.3659308E0,2.6292017E-1,8.402394E-1,-1.1862506E0,-5.1421314E-1,-1.7395046E0,1.459687E0,-2.5036957E-2,1.3515208E0,-4.017515E-1,1.3400165E0,-8.949729E-2,2.795013E-2,-3.5663996E-2,7.212246E-3,-2.3657287E-2,-3.6523998E-2,-1.1318232E0,2.3293552E-1,1.629616E0,4.978538E-1,3.3972826E-2,2.2896586E-1,-1.3460559E0,1.5494537E0,-1.3365488E-2,-1.183108E0,8.791348E-1,-2.6182242E-2,7.8799933E-1,2.2682838E-2,-3.3951238E-2,7.8404564E-1,-2.5036957E-2,1.6769443E0,-5.0815125E-4,2.8662166E-2,-1.9773735E-2,6.813885E-1,-2.931141E-2,-1.4607102E0,-4.7701746E-3,3.4478907E-2,-5.0815125E-4,-4.7701746E-3,-2.8687937E-2,2.8662166E-2,-8.2239E-3,2.684153E-2,-4.0375427E-3,-3.16762E-3,2.8662166E-2,2.3082335E-2,3.500948E-2,2.460988E-2,-3.6299278E-3,-3.4222227E-2,-5.0815125E-4],"categories":[],"categories_nodes":[],"categories_segments":[],"categories_sizes":[],"default_left":[0,0,0,0,0,0,0,0,0,0,0,0,0,0,0,0,0,0,0,0,0,0,0,0,0,0,0,0,0,0,0,0,0,0,0,0,0,0,0,0,0,0,0,0,0,0,0,0,0,0,0,0,0,0,0,0,0,0,0,0,0,0,0],"id":3,"left_children":[1,3,5,7,9,11,13,15,17,19,21,23,-1,25,27,29,31,33,-1,-1,-1,-1,35,37,39,41,-1,43,45,47,-1,49,51,-1,53,-1,-1,55,-1,57,-1,-1,-1,59,-1,61,-1,-1,-1,-1,-1,-1,-1,-1,-1,-1,-1,-1,-1,-1,-1,-1,-1],"loss_changes":[1.8962552E2,6.661128E1,3.0594856E1,4.442274E1,2.8042755E0,1.7522797E1,3.1936275E1,1.1811283E1,1.3803732E1,2.7652287E0,8.2710266E-1,1.25868225E1,0E0,4.0962486E0,1.6811852E1,7.9448433E0,1.135143E1,8.387985E0,0E0,0E0,0E0,0E0,1.4089066E1,8.128781E0,4.308914E0,1.0086288E1,0E0,1.4390433E1,1.0791435E0,4.214447E0,0E0,8.4432983E-1,4.689193E0,0E0,3.144672E0,0E0,0E0,4.49966E0,0E0,1.5975952E-2,0E0,0E0,0E0,7.0792747E0,0E0,3.547676E0,0E0,0E0,0E0,0E0,0E0,0E0,0E0,0E0,0E0,0E0,0E0,0E0,0E0,0E0,0E0,0E0,0E0],"parents":[2147483647,0,0,1,1,2,2,3,3,4,4,5,5,6,6,7,7,8,8,9,9,10,10,11,11,13,13,14,14,15,15,16,16,17,17,22,22,23,23,24,24,25,25,27,27,28,28,29,29,31,31,32,32,34,34,37,37,39,39,43,43,45,45],"right_children":[2,4,6,8,10,12,14,16,18,20,22,24,-1,26,28,30,32,34,-1,-1,-1,-1,36,38,40,42,-1,44,46,48,-1,50,52,-1,54,-1,-1,56,-1,58,-1,-1,-1,60,-1,62,-1,-1,-1,-1,-1,-1,-1,-1,-1,-1,-1,-1,-1,-1,-1,-1,-1],"split_conditions":[1E0,1E0,5.7E1,3E0,1.1E2,3.6E0,1E0,1E0,6E-1,1.48E2,3.02E2,1.43E2,-2.5036957E-2,6.3E1,2.46E2,3.04E2,1.45E2,4.2E1,-3.5663996E-2,7.212246E-3,-2.3657287E-2,-3.6523998E-2,3.04E2,2E0,1.95E2,1E0,3.3972826E-2,2.4E0,1.72E2,6.7E1,-1.3365488E-2,1.22E2,7E-1,-2.6182242E-2,2.27E2,2.2682838E-2,-3.3951238E-2,2E0,-2.5036957E-2,1.12E2,-5.0815125E-4,2.8662166E-2,-1.9773735E-2,1E0,-2.931141E-2,6.7E1,-4.7701746E-3,3.4478907E-2,-5.0815125E-4,-4.7701746E-3,-2.8687937E-2,2.8662166E-2,-8.2239E-3,2.684153E-2,-4.0375427E-3,-3.16762E-3,2.8662166E-2,2.3082335E-2,3.500948E-2,2.460988E-2,-3.6299278E-3,-3.4222227E-2,-5.0815125E-4],"split_indices":[2,11,0,12,3,9,1,8,9,7,4,7,0,0,4,4,7,0,0,0,0,0,4,11,7,11,0,9,3,0,0,3,9,0,4,0,0,10,0,3,0,0,0,11,0,0,0,0,0,0,0,0,0,0,0,0,0,0,0,0,0,0,0],"split_type":[0,0,0,0,0,0,0,0,0,0,0,0,0,0,0,0,0,0,0,0,0,0,0,0,0,0,0,0,0,0,0,0,0,0,0,0,0,0,0,0,0,0,0,0,0,0,0,0,0,0,0,0,0,0,0,0,0,0,0,0,0,0,0],"sum_hessian":[2.0440509E2,9.906765E1,1.0533745E2,4.2136734E1,5.693092E1,6.2950283E1,4.238716E1,2.416104E1,1.7975693E1,2.9980533E0,5.3932865E1,6.1200764E1,1.7495191E0,1.5677368E1,2.6709793E1,1.54270115E1,8.734028E0,6.238896E0,1.1736797E1,1.4983646E0,1.4996887E0,4.5444317E1,8.488549E0,7.73452E0,5.3466244E1,5.235656E0,1.0441712E1,1.6468035E1,1.0241758E1,1.4177014E1,1.2499974E0,3.9983575E0,4.7356706E0,1.9993238E0,4.239572E0,1.4951768E0,6.993373E0,5.985001E0,1.7495191E0,5.1966915E1,1.4993279E0,3.235801E0,1.9998549E0,1.3469671E1,2.998364E0,8.992026E0,1.2497324E0,1.2677686E1,1.4993279E0,1.2497324E0,2.748625E0,3.235801E0,1.49987E0,2.4900053E0,1.7495667E0,2.7492E0,3.235801E0,8.466003E0,4.350091E1,7.9711356E0,5.498536E0,7.492698E0,1.4993279E0],"tree_param":{"num_deleted":"0","num_feature":"13","num_nodes":"63","size_leaf_vector":"1"}},{"base_weights":[-1.3787391E-3,-9.7182214E-1,9.1226935E-1,-3.186366E-2,-1.6548493E0,1.2200541E0,5.2890293E-3,8.252575E-1,-1.1660473E0,-5.081832E-1,-1.7082388E0,1.6031129E0,6.073061E-1,-1.3311089E0,3.7309104E-1,1.3174449E0,-8.912005E-2,2.6952464E-2,-3.505602E-2,7.12682E-3,-2.3380222E-2,-3.586626E-2,-1.1117258E0,-1.31614385E-2,1.6773086E0,1.4741266E0,-1.8123803E-1,-3.1175137E-2,-4.6250205E-3,6.949242E-1,-1.0810163E0,1.5244187E0,-1.3217168E-2,-1.1666702E0,8.661431E-1,-2.5844533E-2,7.772803E-1,2.2430178E-2,-3.339643E-2,1.7345662E0,-7.671327E-4,5.0938845E-1,3.377498E-2,5.5517423E-1,-3.2438286E-2,1.1793187E0,-5.694532E-1,-2.606692E-2,-7.635369E-3,3.3931457E-2,-5.020496E-4,-4.717008E-3,-2.828496E-2,2.8269984E-2,-8.1249215E-3,2.6494302E-2,-3.9860085E-3,1.6660964E-2,3.5904914E-2,-4.3922565E-3,2.2157384E-2,2.66588E-2,-2.2331616E-2,1.1214273E-2,3.250765E-2,-2.533711E-2,8.243768E-3],"categories":[],"categories_nodes":[],"categories_segments":[],"categories_sizes":[],"default_left":[0,0,0,0,0,0,0,0,0,0,0,0,0,0,0,0,0,0,0,0,0,0,0,0,0,0,0,0,0,0,0,0,0,0,0,0,0,0,0,0,0,0,0,0,0,0,0,0,0,0,0,0,0,0,0,0,0,0,0,0,0,0,0,0,0,0,0],"id":4,"left_children":[1,3,5,7,9,11,13,15,17,19,21,23,25,27,29,31,33,35,-1,-1,-1,-1,37,-1,39,41,43,-1,-1,45,47,49,-1,51,53,-1,55,-1,-1,57,-1,59,-1,61,-1,63,65,-1,-1,-1,-1,-1,-1,-1,-1,-1,-1,-1,-1,-1,-1,-1,-1,-1,-1,-1,-1],"loss_changes":[1.8268228E2,6.409303E1,2.9618904E1,4.282967E1,2.673172E0,1.7623627E1,1.42070055E1,1.1420507E1,1.3313644E1,2.700035E0,7.897644E-1,9.180862E0,2.2200264E1,1.2016277E0,1.1353031E1,7.718582E0,1.1020964E1,8.163794E0,0E0,0E0,0E0,0E0,1.3684615E1,0E0,4.673355E0,2.3273506E0,1.9671783E1,0E0,0E0,1.2404849E1,2.0149565E-1,4.0813904E0,0E0,8.178034E-1,4.564174E0,0E0,3.0627263E0,0E0,0E0,9.8820496E-1,0E0,2.0903556E0,0E0,1.7680681E1,0E0,3.0005398E0,4.6166925E0,0E0,0E0,0E0,0E0,0E0,0E0,0E0,0E0,0E0,0E0,0E0,0E0,0E0,0E0,0E0,0E0,0E0,0E0,0E0,0E0],"parents":[2147483647,0,0,1,1,2,2,3,3,4,4,5,5,6,6,7,7,8,8,9,9,10,10,11,11,12,12,13,13,14,14,15,15,16,16,17,17,22,22,24,24,25,25,26,26,29,29,30,30,31,31,33,33,34,34,36,36,39,39,41,41,43,43,45,45,46,46],"right_children":[2,4,6,8,10,12,14,16,18,20,22,24,26,28,30,32,34,36,-1,-1,-1,-1,38,-1,40,42,44,-1,-1,46,48,50,-1,52,54,-1,56,-1,-1,58,-1,60,-1,62,-1,64,66,-1,-1,-1,-1,-1,-1,-1,-1,-1,-1,-1,-1,-1,-1,-1,-1,-1,-1,-1,-1],"split_conditions":[1E0,1E0,3E0,3E0,1.1E2,5.6E1,1.42E2,1E0,6E-1,1.48E2,3.02E2,1.57E2,1E0,2.82E2,2E0,3.04E2,1.45E2,4.2E1,-3.505602E-2,7.12682E-3,-2.3380222E-2,-3.586626E-2,3.04E2,-1.31614385E-2,1.5E2,5.9E1,2.46E2,-3.1175137E-2,-4.6250205E-3,1.52E2,3E0,6.7E1,-1.3217168E-2,1.22E2,7E-1,-2.5844533E-2,2.27E2,2.2430178E-2,-3.339643E-2,1.1E2,-7.671327E-4,2E0,3.377498E-2,1E0,-3.2438286E-2,2E0,3E0,-2.606692E-2,-7.635369E-3,3.3931457E-2,-5.020496E-4,-4.717008E-3,-2.828496E-2,2.8269984E-2,-8.1249215E-3,2.6494302E-2,-3.9860085E-3,1.6660964E-2,3.5904914E-2,-4.3922565E-3,2.2157384E-2,2.66588E-2,-2.2331616E-2,1.1214273E-2,3.250765E-2,-2.533711E-2,8.243768E-3],"split_indices":[2,11,12,12,3,0,7,8,9,7,4,4,1,4,9,4,7,0,0,0,0,0,4,0,3,0,4,0,0,3,2,0,0,3,9,0,4,0,0,3,0,2,0,11,0,10,2,0,0,0,0,0,0,0,0,0,0,0,0,0,0,0,0,0,0,0,0],"split_type":[0,0,0,0,0,0,0,0,0,0,0,0,0,0,0,0,0,0,0,0,0,0,0,0,0,0,0,0,0,0,0,0,0,0,0,0,0,0,0,0,0,0,0,0,0,0,0,0,0,0,0,0,0,0,0,0,0,0,0,0,0,0,0,0,0,0,0],"sum_hessian":[2.0403806E2,9.891282E1,1.0512523E2,4.2067554E1,5.6845264E1,7.823195E1,2.689328E1,2.4115473E1,1.795208E1,2.9969566E0,5.384831E1,4.714379E1,3.1088158E1,5.2388783E0,2.1654402E1,1.5390387E1,8.725086E0,6.233027E0,1.1719052E1,1.4979883E0,1.4989684E0,4.5371185E1,8.477124E0,1.2477578E0,4.5896034E1,1.43948965E1,1.669326E1,3.9948018E0,1.2440765E0,1.8157707E1,3.4966948E0,1.4140421E1,1.2499657E0,3.9961102E0,4.728976E0,1.9980192E0,4.235008E0,1.4930636E0,6.984061E0,4.4403133E1,1.4929016E0,3.2335126E0,1.1161384E1,1.145341E1,5.239851E0,1.3176821E1,4.980887E0,1.9976158E0,1.4990789E0,1.2641077E1,1.4993439E0,1.2498125E0,2.7462976E0,3.2290165E0,1.4999595E0,2.485337E0,1.7496707E0,3.7290585E0,4.0674072E1,1.7431974E0,1.4903153E0,7.9550705E0,3.4983392E0,6.4663115E0,6.7105093E0,2.7421749E0,2.238712E0],"tree_param":{"num_deleted":"0","num_feature":"13","num_nodes":"67","size_leaf_vector":"1"}},{"base_weights":[-1.7108235E-3,-9.552992E-1,8.9621043E-1,-3.2001782E-2,-1.6261953E0,1.1996175E0,3.6587196E-3,8.1083745E-1,-1.1467065E0,-5.0228137E-1,-1.678529E0,1.5766766E0,5.970609E-1,-1.311131E0,3.6568508E-1,1.2957959E0,-8.875584E-2,2.598509E-2,-3.447748E-2,7.042514E-3,-2.3110228E-2,-3.524192E-2,-1.0924566E0,-1.3016438E-2,1.6500399E0,1.4516706E0,-1.7943208E-1,-3.070314E-2,-4.5736684E-3,6.8315333E-1,-1.0673095E0,1.5004625E0,-1.3071141E-2,-1.1507186E0,8.535366E-1,-2.5516868E-2,7.6683605E-1,2.2183642E-2,-3.2866437E-2,1.7070553E0,-9.773925E-4,5.037158E-1,3.325434E-2,5.451193E-1,-3.1932276E-2,1.1606451E0,-5.607389E-1,-2.5732918E-2,-7.5443666E-3,3.3409365E-2,-4.960224E-4,-4.6644616E-3,-2.7895793E-2,2.789133E-2,-8.027297E-3,2.6157908E-2,-3.9351517E-3,1.641537E-2,3.53352E-2,-4.343802E-3,2.1924863E-2,2.6230922E-2,-2.1985158E-2,1.102708E-2,3.201457E-2,-2.4948267E-2,8.131604E-3],"categories":[],"categories_nodes":[],"categories_segments":[],"categories_sizes":[],"default_left":[0,0,0,0,0,0,0,0,0,0,0,0,0,0,0,0,0,0,0,0,0,0,0,0,0,0,0,0,0,0,0,0,0,0,0,0,0,0,0,0,0,0,0,0,0,0,0,0,0,0,0,0,0,0,0,0,0,0,0,0,0,0,0,0,0,0,0],"id":5,"left_children":[1,3,5,7,9,11,13,15,17,19,21,23,25,27,29,31,33,35,-1,-1,-1,-1,37,-1,39,41,43,-1,-1,45,47,49,-1,51,53,-1,55,-1,-1,57,-1,59,-1,61,-1,63,65,-1,-1,-1,-1,-1,-1,-1,-1,-1,-1,-1,-1,-1,-1,-1,-1,-1,-1,-1,-1],"loss_changes":[1.7604414E2,6.171089E1,2.8671745E1,4.1311176E1,2.5523376E0,1.7012962E1,1.3743871E1,1.1048216E1,1.285066E1,2.6368282E0,7.555237E-1,8.917572E0,2.1513155E1,1.1608067E0,1.1025328E1,7.502598E0,1.0702609E1,7.9472566E0,0E0,0E0,0E0,0E0,1.3297834E1,0E0,4.61187E0,2.234684E0,1.901438E1,0E0,0E0,1.2017515E1,1.9501877E-1,3.9561996E0,0E0,7.927561E-1,4.443974E0,0E0,2.9838638E0,0E0,0E0,9.4487E-1,0E0,2.0453472E0,0E0,1.711697E1,0E0,2.9128685E0,4.4811325E0,0E0,0E0,0E0,0E0,0E0,0E0,0E0,0E0,0E0,0E0,0E0,0E0,0E0,0E0,0E0,0E0,0E0,0E0,0E0,0E0],"parents":[2147483647,0,0,1,1,2,2,3,3,4,4,5,5,6,6,7,7,8,8,9,9,10,10,11,11,12,12,13,13,14,14,15,15,16,16,17,17,22,22,24,24,25,25,26,26,29,29,30,30,31,31,33,33,34,34,36,36,39,39,41,41,43,43,45,45,46,46],"right_children":[2,4,6,8,10,12,14,16,18,20,22,24,26,28,30,32,34,36,-1,-1,-1,-1,38,-1,40,42,44,-1,-1,46,48,50,-1,52,54,-1,56,-1,-1,58,-1,60,-1,62,-1,64,66,-1,-1,-1,-1,-1,-1,-1,-1,-1,-1,-1,-1,-1,-1,-1,-1,-1,-1,-1,-1],"split_conditions":[1E0,1E0,3E0,3E0,1.1E2,5.6E1,1.42E2,1E0,6E-1,1.48E2,3.02E2,1.57E2,1E0,2.82E2,2E0,3.04E2,1.45E2,4.2E1,-3.447748E-2,7.042514E-3,-2.3110228E-2,-3.524192E-2,3.04E2,-1.3016438E-2,2.5E0,5.9E1,2.46E2,-3.070314E-2,-4.5736684E-3,1.52E2,3E0,6.7E1,-1.3071141E-2,1.22E2,7E-1,-2.5516868E-2,2.27E2,2.2183642E-2,-3.2866437E-2,1.1E2,-9.773925E-4,1.38E2,3.325434E-2,1E0,-3.1932276E-2,2E0,3E0,-2.5732918E-2,-7.5443666E-3,3.3409365E-2,-4.960224E-4,-4.6644616E-3,-2.7895793E-2,2.789133E-2,-8.027297E-3,2.6157908E-2,-3.9351517E-3,1.641537E-2,3.53352E-2,-4.343802E-3,2.1924863E-2,2.6230922E-2,-2.1985158E-2,1.102708E-2,3.201457E-2,-2.4948267E-2,8.131604E-3],"split_indices":[2,11,12,12,3,0,7,8,9,7,4,4,1,4,9,4,7,0,0,0,0,0,4,0,9,0,4,0,0,3,2,0,0,3,9,0,4,0,0,3,0,3,0,11,0,10,2,0,0,0,0,0,0,0,0,0,0,0,0,0,0,0,0,0,0,0,0],"split_type":[0,0,0,0,0,0,0,0,0,0,0,0,0,0,0,0,0,0,0,0,0,0,0,0,0,0,0,0,0,0,0,0,0,0,0,0,0,0,0,0,0,0,0,0,0,0,0,0,0,0,0,0,0,0,0,0,0,0,0,0,0,0,0,0,0,0,0],"sum_hessian":[2.0359978E2,9.8708206E1,1.0489158E2,4.198101E1,5.6727196E1,7.80245E1,2.6867079E1,2.4060913E1,1.7920095E1,2.9954233E0,5.3731773E1,4.6998085E1,3.1026415E1,5.234615E0,2.1632463E1,1.5347086E1,8.713828E0,6.2256885E0,1.16944065E1,1.4975784E0,1.4978449E0,4.5270172E1,8.461604E0,1.247566E0,4.575052E1,1.4356311E1,1.6670103E1,3.9905024E0,1.2441124E0,1.8137514E1,3.494949E0,1.4097261E1,1.2498246E0,3.992779E0,4.721049E0,1.996062E0,4.2296267E0,1.4906013E0,6.9710026E0,4.4260345E1,1.490174E0,3.2308946E0,1.1125416E1,1.143776E1,5.2323437E0,1.315474E1,4.982774E0,1.9960673E0,1.4988819E0,1.2597901E1,1.4993596E0,1.2498777E0,2.7429013E0,3.2210507E0,1.4999981E0,2.479867E0,1.7497594E0,3.7241616E0,4.0536182E1,1.7433171E0,1.4875774E0,7.939602E0,3.4981585E0,6.4615836E0,6.693157E0,2.7447736E0,2.2380002E0],"tree_param":{"num_deleted":"0","num_feature":"13","num_nodes":"67","size_leaf_vector":"1"}},{"base_weights":[-2.0346092E-3,-9.3951154E-1,8.807821E-1,-3.2141887E-2,-1.5989009E0,1.1800479E0,2.0782165E-3,7.969451E-1,-1.128172E0,-4.965038E-1,-1.6502608E0,1.551424E0,5.872114E-1,-1.2918434E0,3.5850263E-1,1.2750095E0,-8.840358E-2,2.5046518E-2,-3.3926304E-2,6.959301E-3,-2.2847015E-2,-3.4648485E-2,-1.0739627E0,-1.2873642E-2,1.624017E0,1.4301239E0,-1.7769818E-1,-3.0249555E-2,-4.5229094E-3,6.7174244E-1,-1.053942E0,1.4775143E0,-1.2927343E-2,-1.13523E0,8.412974E-1,-2.5198797E-2,7.566553E-1,2.1942994E-2,-3.235962E-2,1.6803546E0,-9.656711E-4,4.981516E-1,3.275707E-2,5.353912E-1,-3.1447317E-2,1.1425555E0,-5.52245E-1,-2.540879E-2,-7.4545774E-3,3.2910924E-2,-4.90067E-4,-4.612533E-3,-2.751972E-2,2.7525496E-2,-7.931002E-3,2.5831822E-2,-3.884963E-3,1.6174955E-2,3.478302E-2,-4.4258893E-3,2.1823637E-2,2.5817228E-2,-2.1648202E-2,1.0843491E-2,3.1542215E-2,-2.457125E-2,8.02114E-3],"categories":[],"categories_nodes":[],"categories_segments":[],"categories_sizes":[],"default_left":[0,0,0,0,0,0,0,0,0,0,0,0,0,0,0,0,0,0,0,0,0,0,0,0,0,0,0,0,0,0,0,0,0,0,0,0,0,0,0,0,0,0,0,0,0,0,0,0,0,0,0,0,0,0,0,0,0,0,0,0,0,0,0,0,0,0,0],"id":6,"left_children":[1,3,5,7,9,11,13,15,17,19,21,23,25,27,29,31,33,35,-1,-1,-1,-1,37,-1,39,41,43,-1,-1,45,47,49,-1,51,53,-1,55,-1,-1,57,-1,59,-1,61,-1,63,65,-1,-1,-1,-1,-1,-1,-1,-1,-1,-1,-1,-1,-1,-1,-1,-1,-1,-1,-1,-1],"loss_changes":[1.697231E2,5.9454575E1,2.7771217E1,3.9862595E1,2.4406738E0,1.6434265E1,1.3299754E1,1.0693163E1,1.2412672E1,2.5755277E0,7.240906E-1,8.667015E0,2.085593E1,1.1224699E0,1.0709402E1,7.296179E0,1.0395806E1,7.738045E0,0E0,0E0,0E0,0E0,1.2927591E1,0E0,4.4698486E0,2.1484718E0,1.8386318E1,0E0,0E0,1.1645176E1,1.890316E-1,3.8382225E0,0E0,7.6908207E-1,4.328333E0,0E0,2.907922E0,0E0,0E0,9.043274E-1,0E0,2.0453417E0,0E0,1.6575533E1,0E0,2.8312283E0,4.350624E0,0E0,0E0,0E0,0E0,0E0,0E0,0E0,0E0,0E0,0E0,0E0,0E0,0E0,0E0,0E0,0E0,0E0,0E0,0E0,0E0],"parents":[2147483647,0,0,1,1,2,2,3,3,4,4,5,5,6,6,7,7,8,8,9,9,10,10,11,11,12,12,13,13,14,14,15,15,16,16,17,17,22,22,24,24,25,25,26,26,29,29,30,30,31,31,33,33,34,34,36,36,39,39,41,41,43,43,45,45,46,46],"right_children":[2,4,6,8,10,12,14,16,18,20,22,24,26,28,30,32,34,36,-1,-1,-1,-1,38,-1,40,42,44,-1,-1,46,48,50,-1,52,54,-1,56,-1,-1,58,-1,60,-1,62,-1,64,66,-1,-1,-1,-1,-1,-1,-1,-1,-1,-1,-1,-1,-1,-1,-1,-1,-1,-1,-1,-1],"split_conditions":[1E0,1E0,3E0,3E0,1.1E2,5.6E1,1.42E2,1E0,6E-1,1.48E2,3.02E2,1.57E2,1E0,2.82E2,2E0,3.04E2,1.45E2,4.2E1,-3.3926304E-2,6.959301E-3,-2.2847015E-2,-3.4648485E-2,3.04E2,-1.2873642E-2,2.5E0,5.9E1,2.46E2,-3.0249555E-2,-4.5229094E-3,1.52E2,3E0,6.7E1,-1.2927343E-2,1.22E2,7E-1,-2.5198797E-2,2.27E2,2.1942994E-2,-3.235962E-2,1.1E2,-9.656711E-4,2E0,3.275707E-2,1E0,-3.1447317E-2,2E0,3E0,-2.540879E-2,-7.4545774E-3,3.2910924E-2,-4.90067E-4,-4.612533E-3,-2.751972E-2,2.7525496E-2,-7.931002E-3,2.5831822E-2,-3.884963E-3,1.6174955E-2,3.478302E-2,-4.4258893E-3,2.1823637E-2,2.5817228E-2,-2.1648202E-2,1.0843491E-2,3.1542215E-2,-2.457125E-2,8.02114E-3],"split_indices":[2,11,12,12,3,0,7,8,9,7,4,4,1,4,9,4,7,0,0,0,0,0,4,0,9,0,4,0,0,3,2,0,0,3,9,0,4,0,0,3,0,2,0,11,0,10,2,0,0,0,0,0,0,0,0,0,0,0,0,0,0,0,0,0,0,0,0],"split_type":[0,0,0,0,0,0,0,0,0,0,0,0,0,0,0,0,0,0,0,0,0,0,0,0,0,0,0,0,0,0,0,0,0,0,0,0,0,0,0,0,0,0,0,0,0,0,0,0,0,0,0,0,0,0,0,0,0,0,0,0,0,0,0,0,0,0,0],"sum_hessian":[2.0307375E2,9.845675E1,1.0461699E2,4.1878082E1,5.6578667E1,7.7783005E1,2.6833988E1,2.3997879E1,1.7880205E1,2.9934702E0,5.3585197E1,4.6829933E1,3.0953072E1,5.2285213E0,2.1605467E1,1.5297513E1,8.700366E0,6.216946E0,1.1663259E1,1.4971362E0,1.496334E0,4.514299E1,8.442207E0,1.2472706E0,4.5582664E1,1.431196E1,1.6641111E1,3.9843862E0,1.244135E0,1.8112946E1,3.4925215E0,1.4047935E1,1.2495779E0,3.988414E0,4.7119517E0,1.9934794E0,4.2234664E0,1.4878044E0,6.954403E0,4.409243E1,1.4902322E0,3.22795E0,1.108401E1,1.1418818E1,5.222292E0,1.3129244E1,4.983701E0,1.9938772E0,1.4986444E0,1.254856E1,1.4993749E0,1.2499286E0,2.7384853E0,3.2119644E0,1.4999875E0,2.473633E0,1.7498335E0,3.7188418E0,4.037359E1,1.7417518E0,1.4861982E0,7.921689E0,3.4971297E0,6.456545E0,6.6726995E0,2.7464767E0,2.2372246E0],"tree_param":{"num_deleted":"0","num_feature":"13","num_nodes":"67","size_leaf_vector":"1"}},{"base_weights":[-2.3497194E-3,-9.244094E-1,8.6594766E-1,-3.228397E-2,-1.5728699E0,1.1612933E0,5.4480135E-4,7.8354865E-1,-1.1103923E0,-4.9084663E-1,-1.623331E0,1.527292E0,5.7772917E-1,-1.2732085E0,3.515323E-1,1.2550309E0,-8.8062525E-2,2.4135496E-2,-3.340062E-2,6.87717E-3,-2.2590334E-2,-3.4083705E-2,-1.0561959E0,-1.2733005E-2,1.5991732E0,1.4094102E0,-1.7603213E-1,-4.35065E-3,-2.98641E-2,6.606727E-1,-1.0408999E0,1.4555084E0,-1.2785734E-2,-1.1201826E0,8.2940793E-1,-2.4889888E-2,7.467271E-1,2.1708013E-2,-3.1874485E-2,1.6553624E0,-1.1657146E-3,4.9266744E-1,3.2281637E-2,5.25972E-1,-3.0982103E-2,1.1250181E0,-5.4396254E-1,-2.5094086E-2,-7.365979E-3,3.243457E-2,-4.841861E-4,-4.561207E-3,-2.7156068E-2,2.717181E-2,-7.836014E-3,2.551555E-2,-3.835437E-3,1.5939526E-2,3.4267787E-2,-4.3769046E-3,2.159879E-2,2.5416914E-2,-2.1320296E-2,1.0663403E-2,3.1089284E-2,-2.4205467E-2,7.912337E-3],"categories":[],"categories_nodes":[],"categories_segments":[],"categories_sizes":[],"default_left":[0,0,0,0,0,0,0,0,0,0,0,0,0,0,0,0,0,0,0,0,0,0,0,0,0,0,0,0,0,0,0,0,0,0,0,0,0,0,0,0,0,0,0,0,0,0,0,0,0,0,0,0,0,0,0,0,0,0,0,0,0,0,0,0,0,0,0],"id":7,"left_children":[1,3,5,7,9,11,13,15,17,19,21,23,25,27,29,31,33,35,-1,-1,-1,-1,37,-1,39,41,43,-1,-1,45,47,49,-1,51,53,-1,55,-1,-1,57,-1,59,-1,61,-1,63,65,-1,-1,-1,-1,-1,-1,-1,-1,-1,-1,-1,-1,-1,-1,-1,-1,-1,-1,-1,-1],"loss_changes":[1.63699E2,5.7314804E1,2.6914238E1,3.8479607E1,2.337326E0,1.5885963E1,1.2873645E1,1.0354193E1,1.1997776E1,2.516061E0,6.950531E-1,8.428406E0,2.0226427E1,1.1199045E0,1.0404694E1,7.0986977E0,1.01000185E1,7.5358405E0,0E0,0E0,0E0,0E0,1.2572865E1,0E0,4.41716E0,2.0684986E0,1.778584E1,0E0,0E0,1.1287058E1,1.8349838E-1,3.726883E0,0E0,7.466831E-1,4.2170053E0,0E0,2.8347526E0,0E0,0E0,8.712311E-1,0E0,2.0017202E0,0E0,1.6055195E1,0E0,2.7550945E0,4.2249184E0,0E0,0E0,0E0,0E0,0E0,0E0,0E0,0E0,0E0,0E0,0E0,0E0,0E0,0E0,0E0,0E0,0E0,0E0,0E0,0E0],"parents":[2147483647,0,0,1,1,2,2,3,3,4,4,5,5,6,6,7,7,8,8,9,9,10,10,11,11,12,12,13,13,14,14,15,15,16,16,17,17,22,22,24,24,25,25,26,26,29,29,30,30,31,31,33,33,34,34,36,36,39,39,41,41,43,43,45,45,46,46],"right_children":[2,4,6,8,10,12,14,16,18,20,22,24,26,28,30,32,34,36,-1,-1,-1,-1,38,-1,40,42,44,-1,-1,46,48,50,-1,52,54,-1,56,-1,-1,58,-1,60,-1,62,-1,64,66,-1,-1,-1,-1,-1,-1,-1,-1,-1,-1,-1,-1,-1,-1,-1,-1,-1,-1,-1,-1],"split_conditions":[1E0,1E0,3E0,3E0,1.1E2,5.6E1,1.42E2,1E0,6E-1,1.48E2,3.02E2,1.57E2,1E0,1E0,2E0,3.04E2,1.45E2,4.2E1,-3.340062E-2,6.87717E-3,-2.2590334E-2,-3.4083705E-2,3.04E2,-1.2733005E-2,1.5E2,5.9E1,2.46E2,-4.35065E-3,-2.98641E-2,1.52E2,3E0,6.7E1,-1.2785734E-2,1.22E2,7E-1,-2.4889888E-2,2.27E2,2.1708013E-2,-3.1874485E-2,1.1E2,-1.1657146E-3,1.38E2,3.2281637E-2,1E0,-3.0982103E-2,2E0,3E0,-2.5094086E-2,-7.365979E-3,3.243457E-2,-4.841861E-4,-4.561207E-3,-2.7156068E-2,2.717181E-2,-7.836014E-3,2.551555E-2,-3.835437E-3,1.5939526E-2,3.4267787E-2,-4.3769046E-3,2.159879E-2,2.5416914E-2,-2.1320296E-2,1.0663403E-2,3.1089284E-2,-2.4205467E-2,7.912337E-3],"split_indices":[2,11,12,12,3,0,7,8,9,7,4,4,1,1,9,4,7,0,0,0,0,0,4,0,3,0,4,0,0,3,2,0,0,3,9,0,4,0,0,3,0,3,0,11,0,10,2,0,0,0,0,0,0,0,0,0,0,0,0,0,0,0,0,0,0,0,0],"split_type":[0,0,0,0,0,0,0,0,0,0,0,0,0,0,0,0,0,0,0,0,0,0,0,0,0,0,0,0,0,0,0,0,0,0,0,0,0,0,0,0,0,0,0,0,0,0,0,0,0,0,0,0,0,0,0,0,0,0,0,0,0,0,0,0,0,0,0],"sum_hessian":[2.0246495E2,9.816124E1,1.043037E2,4.1759716E1,5.6401524E1,7.750933E1,2.679437E1,2.3926859E1,1.7832857E1,2.9911132E0,5.341041E1,4.6640335E1,3.0868998E1,5.2206903E0,2.157368E1,1.524205E1,8.684809E0,6.2068644E0,1.1625993E1,1.4966629E0,1.4944503E0,4.4991264E1,8.4191475E0,1.2468754E0,4.539346E1,1.4262396E1,1.6606602E1,1.2433152E0,3.977375E0,1.808424E1,3.489441E0,1.3992822E1,1.2492287E0,3.9830632E0,4.701745E0,1.9902985E0,4.216566E0,1.4846864E0,6.934461E0,4.390627E1,1.4871914E0,3.2248993E0,1.1037497E1,1.13967705E1,5.2098317E0,1.310053E1,4.9837103E0,1.9910729E0,1.498368E0,1.2493432E1,1.4993898E0,1.2499655E0,2.7330978E0,3.2018156E0,1.4999297E0,2.466673E0,1.7498931E0,3.7131221E0,4.0193146E1,1.7418745E0,1.4830247E0,7.9014764E0,3.4952936E0,6.4512153E0,6.649314E0,2.7473218E0,2.2363882E0],"tree_param":{"num_deleted":"0","num_feature":"13","num_nodes":"67","size_leaf_vector":"1"}},{"base_weights":[-2.6575122E-3,-9.0994704E-1,8.516655E-1,-3.2427777E-2,-1.5480146E0,1.014802E0,-6.464944E-1,7.7061886E-1,-1.0933197E0,-4.8530617E-1,-1.5976456E0,1.3770983E0,4.1653505E-1,2.514596E-2,-1.2771171E0,1.2358096E0,-8.7731935E-2,2.3251116E-2,-3.2898717E-2,6.7961006E-3,-2.2339923E-2,-3.3545554E-2,-1.0391108E0,-1.2594466E-2,1.431539E0,1.2477733E0,-2.126756E-1,-3.1783827E-2,-8.6228335E-3,1.4343852E0,-1.2646248E-2,-1.1055559E0,8.1785196E-1,-9.5664257E-1,9.4213456E-1,2.1478493E-2,-3.1409655E-2,1.5612428E0,7.6548624E-1,4.5056108E-1,3.1648252E-2,6.7618835E-1,-1.3705846E0,3.197889E-2,-4.7837402E-4,-4.510482E-3,-2.6804201E-2,2.6829645E-2,-7.742306E-3,-4.515432E-3,-2.4079936E-2,2.464241E-2,2.6997584E-3,7.9537425E-3,3.260363E-2,2.274346E-2,-8.090368E-3,2.6981665E-2,-1.916042E-2,3.0165154E-2,2.3113878E-3,-3.2105494E-2,-5.657677E-4],"categories":[],"categories_nodes":[],"categories_segments":[],"categories_sizes":[],"default_left":[0,0,0,0,0,0,0,0,0,0,0,0,0,0,0,0,0,0,0,0,0,0,0,0,0,0,0,0,0,0,0,0,0,0,0,0,0,0,0,0,0,0,0,0,0,0,0,0,0,0,0,0,0,0,0,0,0,0,0,0,0,0,0],"id":8,"left_children":[1,3,5,7,9,11,13,15,17,19,21,23,25,-1,27,29,31,33,-1,-1,-1,-1,35,-1,37,39,41,-1,-1,43,-1,45,47,49,51,-1,-1,53,55,57,-1,59,61,-1,-1,-1,-1,-1,-1,-1,-1,-1,-1,-1,-1,-1,-1,-1,-1,-1,-1,-1,-1],"loss_changes":[1.5795251E2,5.5283203E1,2.6307396E1,3.7158257E1,2.2414398E0,2.0025696E1,1.4712624E1,1.003028E1,1.1604261E1,2.4583564E0,6.682129E-1,7.3209915E0,1.9763123E1,0E0,1.610858E0,6.909563E0,9.814737E0,7.380178E0,0E0,0E0,0E0,0E0,1.2232703E1,0E0,3.773323E0,3.610609E0,2.3644066E1,0E0,0E0,3.6216545E0,0E0,7.2547007E-1,4.109763E0,4.4739056E-1,8.2075596E-1,0E0,0E0,3.1358643E0,5.38979E0,9.12636E0,0E0,5.9628305E0,3.078308E0,0E0,0E0,0E0,0E0,0E0,0E0,0E0,0E0,0E0,0E0,0E0,0E0,0E0,0E0,0E0,0E0,0E0,0E0,0E0,0E0],"parents":[2147483647,0,0,1,1,2,2,3,3,4,4,5,5,6,6,7,7,8,8,9,9,10,10,11,11,12,12,14,14,15,15,16,16,17,17,22,22,24,24,25,25,26,26,29,29,31,31,32,32,33,33,34,34,37,37,38,38,39,39,41,41,42,42],"right_children":[2,4,6,8,10,12,14,16,18,20,22,24,26,-1,28,30,32,34,-1,-1,-1,-1,36,-1,38,40,42,-1,-1,44,-1,46,48,50,52,-1,-1,54,56,58,-1,60,62,-1,-1,-1,-1,-1,-1,-1,-1,-1,-1,-1,-1,-1,-1,-1,-1,-1,-1,-1,-1],"split_conditions":[1E0,1E0,2E0,3E0,1.1E2,5.7E1,1E0,1E0,6E-1,1.48E2,3.02E2,1.57E2,1E0,2.514596E-2,1.66E2,3.04E2,1.45E2,4.9E1,-3.2898717E-2,6.7961006E-3,-2.2339923E-2,-3.3545554E-2,3.04E2,-1.2594466E-2,3E0,6.3E1,2.46E2,-3.1783827E-2,-8.6228335E-3,6.7E1,-1.2646248E-2,1.22E2,7E-1,1.12E2,1.36E2,2.1478493E-2,-3.1409655E-2,2E0,1E0,1E0,3.1648252E-2,1.47E2,6.7E1,3.197889E-2,-4.7837402E-4,-4.510482E-3,-2.6804201E-2,2.6829645E-2,-7.742306E-3,-4.515432E-3,-2.4079936E-2,2.464241E-2,2.6997584E-3,7.9537425E-3,3.260363E-2,2.274346E-2,-8.090368E-3,2.6981665E-2,-1.916042E-2,3.0165154E-2,2.3113878E-3,-3.2105494E-2,-5.657677E-4],"split_indices":[2,11,9,12,3,0,10,8,9,7,4,4,1,0,7,4,7,0,0,0,0,0,4,0,12,0,4,0,0,0,0,3,9,3,3,0,0,12,11,11,0,7,0,0,0,0,0,0,0,0,0,0,0,0,0,0,0,0,0,0,0,0,0],"split_type":[0,0,0,0,0,0,0,0,0,0,0,0,0,0,0,0,0,0,0,0,0,0,0,0,0,0,0,0,0,0,0,0,0,0,0,0,0,0,0,0,0,0,0,0,0,0,0,0,0,0,0,0,0,0,0,0,0,0,0,0,0,0,0],"sum_hessian":[2.0177878E2,9.782436E1,1.03954414E2,4.1626812E1,5.619755E1,9.403722E1,9.917193E0,2.384833E1,1.7778482E1,2.9883687E0,5.3209183E1,5.7758327E1,3.627889E1,2.2203672E0,7.696826E0,1.5181067E1,8.667261E0,6.1955066E0,1.1582975E1,1.4961599E0,1.4922088E0,4.481655E1,8.392631E0,1.2463835E0,5.6511944E1,1.5206626E1,2.1072264E1,4.980883E0,2.7159429E0,1.3932286E1,1.248781E0,3.976775E0,4.6904864E0,2.9783323E0,3.2171743E0,1.4812609E0,6.91137E0,4.617586E1,1.0336082E1,5.189671E0,1.0016955E1,1.21564455E1,8.915818E0,1.2432882E1,1.4994044E0,1.249989E0,2.7267861E0,3.1906602E0,1.4998263E0,1.236759E0,1.7415733E0,1.979485E0,1.2376893E0,2.9614162E0,4.3214443E1,7.865449E0,2.4706333E0,3.1942968E0,1.995374E0,4.213071E0,7.9433746E0,7.4221888E0,1.4936296E0],"tree_param":{"num_deleted":"0","num_feature":"13","num_nodes":"63","size_leaf_vector":"1"}},{"base_weights":[-2.7064825E-3,-8.9601445E-1,8.381967E-1,-3.2524742E-2,-1.5242553E0,9.9906194E-1,-6.35819E-1,7.581285E-1,-1.076499E0,-4.7987902E-1,-1.5731195E0,1.3560524E0,4.1037333E-1,2.4845246E-2,-1.2574947E0,1.2172989E0,-8.74111E-2,2.2637427E-2,-3.2419015E-2,6.7160754E-3,-2.2095552E-2,-3.3032168E-2,-1.0226667E0,-1.2457985E-2,1.4099816E0,1.2300797E0,-2.0879044E-1,-4.2149666E-1,-3.1337336E-2,1.4140894E0,-1.2508844E-2,-1.0913305E0,8.066142E-1,-2.4390947E-2,7.30381E-1,2.1254232E-2,-3.0963873E-2,1.538318E0,7.5287265E-1,4.4377753E-1,3.1215018E-2,6.65728E-1,-1.3499541E0,5.908172E-3,-2.049974E-2,3.154256E-2,-4.7263072E-4,-4.460343E-3,-2.6463531E-2,2.6498416E-2,-7.6498603E-3,2.5064265E-2,-3.8435326E-3,7.838206E-3,3.2130815E-2,2.2396943E-2,-7.97155E-3,2.6645755E-2,-1.8914238E-2,2.9737562E-2,2.2706138E-3,-3.1635728E-2,-5.5898476E-4],"categories":[],"categories_nodes":[],"categories_segments":[],"categories_sizes":[],"default_left":[0,0,0,0,0,0,0,0,0,0,0,0,0,0,0,0,0,0,0,0,0,0,0,0,0,0,0,0,0,0,0,0,0,0,0,0,0,0,0,0,0,0,0,0,0,0,0,0,0,0,0,0,0,0,0,0,0,0,0,0,0,0,0],"id":9,"left_children":[1,3,5,7,9,11,13,15,17,19,21,23,25,-1,27,29,31,33,-1,-1,-1,-1,35,-1,37,39,41,43,-1,45,-1,47,49,-1,51,-1,-1,53,55,57,-1,59,61,-1,-1,-1,-1,-1,-1,-1,-1,-1,-1,-1,-1,-1,-1,-1,-1,-1,-1,-1,-1],"loss_changes":[1.525258E2,5.335972E1,2.5436073E1,3.588469E1,2.1523438E0,1.9343277E1,1.42915325E1,9.720458E0,1.1240976E1,2.4023468E0,6.4328E-1,7.122772E0,1.9126482E1,0E0,1.5866184E0,6.7282486E0,9.539491E0,7.2103477E0,0E0,0E0,0E0,0E0,1.1906244E1,0E0,3.6710968E0,3.504881E0,2.2889364E1,1.9099472E0,0E0,3.5220737E0,0E0,7.053628E-1,4.0063944E0,0E0,2.751287E0,0E0,0E0,3.042389E0,5.2276554E0,8.885373E0,0E0,5.791587E0,2.9870644E0,0E0,0E0,0E0,0E0,0E0,0E0,0E0,0E0,0E0,0E0,0E0,0E0,0E0,0E0,0E0,0E0,0E0,0E0,0E0,0E0],"parents":[2147483647,0,0,1,1,2,2,3,3,4,4,5,5,6,6,7,7,8,8,9,9,10,10,11,11,12,12,14,14,15,15,16,16,17,17,22,22,24,24,25,25,26,26,27,27,29,29,31,31,32,32,34,34,37,37,38,38,39,39,41,41,42,42],"right_children":[2,4,6,8,10,12,14,16,18,20,22,24,26,-1,28,30,32,34,-1,-1,-1,-1,36,-1,38,40,42,44,-1,46,-1,48,50,-1,52,-1,-1,54,56,58,-1,60,62,-1,-1,-1,-1,-1,-1,-1,-1,-1,-1,-1,-1,-1,-1,-1,-1,-1,-1,-1,-1],"split_conditions":[1E0,1E0,2E0,3E0,1.1E2,5.7E1,1E0,1E0,6E-1,1.48E2,3.02E2,1.57E2,1E0,2.4845246E-2,2.5E0,3.04E2,1.45E2,4.2E1,-3.2419015E-2,6.7160754E-3,-2.2095552E-2,-3.3032168E-2,3.04E2,-1.2457985E-2,3E0,6.3E1,2.46E2,1E0,-3.1337336E-2,6.7E1,-1.2508844E-2,1.22E2,7E-1,-2.4390947E-2,2.27E2,2.1254232E-2,-3.0963873E-2,2E0,1E0,1E0,3.1215018E-2,1.47E2,6.7E1,5.908172E-3,-2.049974E-2,3.154256E-2,-4.7263072E-4,-4.460343E-3,-2.6463531E-2,2.6498416E-2,-7.6498603E-3,2.5064265E-2,-3.8435326E-3,7.838206E-3,3.2130815E-2,2.2396943E-2,-7.97155E-3,2.6645755E-2,-1.8914238E-2,2.9737562E-2,2.2706138E-3,-3.1635728E-2,-5.5898476E-4],"split_indices":[2,11,9,12,3,0,10,8,9,7,4,4,1,0,9,4,7,0,0,0,0,0,4,0,12,0,4,6,0,0,0,3,9,0,4,0,0,12,11,11,0,7,0,0,0,0,0,0,0,0,0,0,0,0,0,0,0,0,0,0,0,0,0],"split_type":[0,0,0,0,0,0,0,0,0,0,0,0,0,0,0,0,0,0,0,0,0,0,0,0,0,0,0,0,0,0,0,0,0,0,0,0,0,0,0,0,0,0,0,0,0,0,0,0,0,0,0,0,0,0,0,0,0,0,0,0,0,0,0],"sum_hessian":[2.0104698E2,9.745406E1,1.0359291E2,4.1485634E1,5.596843E1,9.369032E1,9.902583E0,2.3762743E1,1.7722893E1,2.9852514E0,5.2983177E1,5.751112E1,3.6179207E1,2.2144585E0,7.6881247E0,1.5114916E1,8.647827E0,6.188336E0,1.1534557E1,1.4956282E0,1.4896233E0,4.4620327E1,8.362851E0,1.2457986E0,5.626532E1,1.51437845E1,2.1035423E1,2.7147214E0,4.9734035E0,1.3866677E1,1.2482382E0,3.9695947E0,4.678232E0,1.9836375E0,4.204698E0,1.477541E0,6.88531E0,4.5950027E1,1.0315291E1,5.176545E0,9.967239E0,1.2144919E1,8.890503E0,1.474096E0,1.2406254E0,1.2367259E1,1.4994186E0,1.2499993E0,2.7195954E0,3.178553E0,1.499679E0,2.4549923E0,1.749706E0,2.9597242E0,4.2990303E1,7.8430934E0,2.4721982E0,3.1825976E0,1.9939475E0,4.202658E0,7.942261E0,7.3968544E0,1.4936491E0],"tree_param":{"num_deleted":"0","num_feature":"13","num_nodes":"63","size_leaf_vector":"1"}},{"base_weights":[-2.794724E-3,-8.8270646E-1,8.251751E-1,-3.267323E-2,-1.5015187E0,1.1104913E0,-4.731524E-3,7.460526E-1,-1.0606914E0,-1.0191323E0,-3.2771245E-2,1.4631404E0,5.505001E-1,-1.2304801E0,3.3285373E-1,1.1994559E0,-8.709937E-2,2.1790829E-2,-3.1960085E-2,2.0074401E-2,-1.2700415E0,-1.2323511E-2,1.5332268E0,1.3527106E0,-1.7280485E-1,-2.8891925E-2,-4.124516E-3,6.310833E-1,-1.0073285E0,1.3945705E0,-1.23734735E-2,-1.0774882E0,7.956804E-1,-9.3727195E-1,9.2178726E-1,-1.456111E0,3.779498E-3,1.5876884E0,-1.1585628E-3,4.681283E-1,3.1039393E-2,5.01937E-1,-2.9885773E-2,1.0825647E0,-5.334646E-1,-2.4257213E-2,-7.166527E-3,3.1124374E-2,-4.6695914E-4,-4.41079E-3,-2.6133506E-2,2.6177578E-2,-7.558647E-3,-4.419813E-3,-2.3588728E-2,2.419963E-2,2.5252528E-3,-3.7126343E-3,-3.1596232E-2,1.4785499E-2,3.292731E-2,-4.5406357E-3,2.0947125E-2,2.4598863E-2,-2.0868355E-2,9.898267E-3,3.0290348E-2,-2.3873484E-2,7.947549E-3],"categories":[],"categories_nodes":[],"categories_segments":[],"categories_sizes":[],"default_left":[0,0,0,0,0,0,0,0,0,0,0,0,0,0,0,0,0,0,0,0,0,0,0,0,0,0,0,0,0,0,0,0,0,0,0,0,0,0,0,0,0,0,0,0,0,0,0,0,0,0,0,0,0,0,0,0,0,0,0,0,0,0,0,0,0,0,0,0,0],"id":10,"left_children":[1,3,5,7,9,11,13,15,17,19,-1,21,23,25,27,29,31,33,-1,-1,35,-1,37,39,41,-1,-1,43,45,47,-1,49,51,53,55,57,-1,59,-1,61,-1,63,-1,65,67,-1,-1,-1,-1,-1,-1,-1,-1,-1,-1,-1,-1,-1,-1,-1,-1,-1,-1,-1,-1,-1,-1,-1,-1],"loss_changes":[1.4733913E2,5.152237E1,2.4677498E1,3.4675747E1,2.0794678E0,1.450782E1,1.1852297E1,9.423859E0,1.0885857E1,8.986087E0,0E0,7.790779E0,1.854991E1,1.0583668E0,9.6160965E0,6.554266E0,9.273828E0,7.0571904E0,0E0,0E0,4.064474E0,0E0,4.0549393E0,1.9315109E0,1.6341854E1,0E0,0E0,1.0563915E1,1.6232967E-1,3.4277134E0,0E0,6.8628645E-1,3.9066978E0,4.27881E-1,8.114481E-1,1.6703072E0,0E0,9.85939E-1,0E0,1.9306773E0,0E0,1.51485405E1,0E0,2.808607E0,4.147094E0,0E0,0E0,0E0,0E0,0E0,0E0,0E0,0E0,0E0,0E0,0E0,0E0,0E0,0E0,0E0,0E0,0E0,0E0,0E0,0E0,0E0,0E0,0E0,0E0],"parents":[2147483647,0,0,1,1,2,2,3,3,4,4,5,5,6,6,7,7,8,8,9,9,11,11,12,12,13,13,14,14,15,15,16,16,17,17,20,20,22,22,23,23,24,24,27,27,28,28,29,29,31,31,32,32,33,33,34,34,35,35,37,37,39,39,41,41,43,43,44,44],"right_children":[2,4,6,8,10,12,14,16,18,20,-1,22,24,26,28,30,32,34,-1,-1,36,-1,38,40,42,-1,-1,44,46,48,-1,50,52,54,56,58,-1,60,-1,62,-1,64,-1,66,68,-1,-1,-1,-1,-1,-1,-1,-1,-1,-1,-1,-1,-1,-1,-1,-1,-1,-1,-1,-1,-1,-1,-1,-1],"split_conditions":[1E0,1E0,3E0,3E0,4E-1,5.6E1,1.42E2,1E0,6E-1,1E0,-3.2771245E-2,1.57E2,1E0,2.82E2,2E0,3.04E2,1.45E2,4.9E1,-3.1960085E-2,2.0074401E-2,2E-1,-1.2323511E-2,1.5E2,5.9E1,2.46E2,-2.8891925E-2,-4.124516E-3,1.52E2,3E0,6.7E1,-1.23734735E-2,1.22E2,7E-1,1.12E2,1.36E2,1.1E2,3.779498E-3,1.1E2,-1.1585628E-3,2E0,3.1039393E-2,1E0,-2.9885773E-2,2E0,3E0,-2.4257213E-2,-7.166527E-3,3.1124374E-2,-4.6695914E-4,-4.41079E-3,-2.6133506E-2,2.6177578E-2,-7.558647E-3,-4.419813E-3,-2.3588728E-2,2.419963E-2,2.5252528E-3,-3.7126343E-3,-3.1596232E-2,1.4785499E-2,3.292731E-2,-4.5406357E-3,2.0947125E-2,2.4598863E-2,-2.0868355E-2,9.898267E-3,3.0290348E-2,-2.3873484E-2,7.947549E-3],"split_indices":[2,11,12,12,9,0,7,8,9,1,0,4,1,4,9,4,7,0,0,0,9,0,3,0,4,0,0,3,2,0,0,3,9,3,3,3,0,3,0,2,0,11,0,10,2,0,0,0,0,0,0,0,0,0,0,0,0,0,0,0,0,0,0,0,0,0,0,0,0],"split_type":[0,0,0,0,0,0,0,0,0,0,0,0,0,0,0,0,0,0,0,0,0,0,0,0,0,0,0,0,0,0,0,0,0,0,0,0,0,0,0,0,0,0,0,0,0,0,0,0,0,0,0,0,0,0,0,0,0,0,0,0,0,0,0,0,0,0,0,0,0],"sum_hessian":[2.0023898E2,9.70425E1,1.0319648E2,4.132673E1,5.571578E1,7.654333E1,2.6653152E1,2.367053E1,1.7656197E1,1.4193155E1,4.152262E1,4.597697E1,3.056636E1,5.184316E0,2.1468836E1,1.5043929E1,8.626602E0,6.175117E0,1.1481078E1,1.2351263E0,1.2958029E1,1.2451236E0,4.4731846E1,1.4080089E1,1.648627E1,3.9485085E0,1.2358075E0,1.79938E1,3.475038E0,1.3796326E1,1.2476034E0,3.9615662E0,4.6650357E0,2.9694095E0,3.2057078E0,1.1494161E1,1.4638681E0,4.3253555E1,1.4782932E0,3.2043176E0,1.08757715E1,1.1324314E1,5.161957E0,1.3017476E1,4.976322E0,1.9793799E0,1.4956579E0,1.2296893E1,1.4994324E0,1.2499971E0,2.711569E0,3.1655467E0,1.4994892E0,1.2334976E0,1.7359117E0,1.970772E0,1.2349358E0,1.2417105E0,1.025245E1,3.6776226E0,3.957593E1,1.732774E0,1.4715436E0,7.8366327E0,3.4876816E0,6.423866E0,6.5936103E0,2.746195E0,2.230127E0],"tree_param":{"num_deleted":"0","num_feature":"13","num_nodes":"69","size_leaf_vector":"1"}},{"base_weights":[-3.0210144E-3,-8.696034E-1,8.122586E-1,-3.277558E-2,-1.4791614E0,9.6994907E-1,-6.2634796E-1,7.343679E-1,-1.0450611E0,-4.6599013E-1,-1.5268952E0,1.3175533E0,3.9850923E-1,2.4326589E-2,-1.2350818E0,1.1822411E0,-8.679607E-2,2.1205E-2,-3.1520605E-2,6.7020273E-3,-2.1663133E-2,-3.209061E-2,-9.8542166E-1,-1.2190996E-2,1.370588E0,1.1971233E0,-2.021851E-1,-3.0754458E-2,-8.299684E-3,1.3757814E0,-1.2240087E-2,2.5159776E-2,-7.202398E-1,-2.391582E-2,7.14694E-1,2.110285E-2,-3.0098524E-2,1.496657E0,7.28825E-1,4.277636E-1,3.0445332E-2,6.494407E-1,-1.3170801E0,3.0723235E-2,-4.613535E-4,-2.4277594E-2,1.8671058E-2,2.4634218E-2,-3.8507183E-3,7.5705145E-3,3.1274144E-2,2.1815123E-2,-7.978079E-3,2.6006728E-2,-1.8566765E-2,2.9155483E-2,2.1543892E-3,-3.0872697E-2,-5.9030997E-4],"categories":[],"categories_nodes":[],"categories_segments":[],"categories_sizes":[],"default_left":[0,0,0,0,0,0,0,0,0,0,0,0,0,0,0,0,0,0,0,0,0,0,0,0,0,0,0,0,0,0,0,0,0,0,0,0,0,0,0,0,0,0,0,0,0,0,0,0,0,0,0,0,0,0,0,0,0,0,0],"id":11,"left_children":[1,3,5,7,9,11,13,15,17,19,21,23,25,-1,27,29,31,33,-1,-1,-1,-1,35,-1,37,39,41,-1,-1,43,-1,-1,45,-1,47,-1,-1,49,51,53,-1,55,57,-1,-1,-1,-1,-1,-1,-1,-1,-1,-1,-1,-1,-1,-1,-1,-1],"loss_changes":[1.422744E2,4.9744728E1,2.4146378E1,3.3508587E1,2.018753E0,1.8127579E1,1.3681414E1,9.139679E0,1.0557766E1,2.3303676E0,6.6682434E-1,6.758499E0,1.7967978E1,0E0,1.5106792E0,6.387165E0,9.086909E0,6.902814E0,0E0,0E0,0E0,0E0,1.1443884E1,0E0,3.4973602E0,3.3528996E0,2.1690464E1,0E0,0E0,3.3381844E0,0E0,0E0,6.982102E0,0E0,2.6719682E0,0E0,0E0,2.890419E0,5.031084E0,8.479556E0,0E0,5.5839663E0,2.8228493E0,0E0,0E0,0E0,0E0,0E0,0E0,0E0,0E0,0E0,0E0,0E0,0E0,0E0,0E0,0E0,0E0],"parents":[2147483647,0,0,1,1,2,2,3,3,4,4,5,5,6,6,7,7,8,8,9,9,10,10,11,11,12,12,14,14,15,15,16,16,17,17,22,22,24,24,25,25,26,26,29,29,32,32,34,34,37,37,38,38,39,39,41,41,42,42],"right_children":[2,4,6,8,10,12,14,16,18,20,22,24,26,-1,28,30,32,34,-1,-1,-1,-1,36,-1,38,40,42,-1,-1,44,-1,-1,46,-1,48,-1,-1,50,52,54,-1,56,58,-1,-1,-1,-1,-1,-1,-1,-1,-1,-1,-1,-1,-1,-1,-1,-1],"split_conditions":[1E0,1E0,2E0,3E0,1.1E2,5.7E1,1E0,1E0,6E-1,1.48E2,3.02E2,1.57E2,1E0,2.4326589E-2,1.66E2,3.04E2,1E0,4.2E1,-3.1520605E-2,6.7020273E-3,-2.1663133E-2,-3.209061E-2,3.04E2,-1.2190996E-2,3E0,6.3E1,2.46E2,-3.0754458E-2,-8.299684E-3,6.7E1,-1.2240087E-2,2.5159776E-2,2E0,-2.391582E-2,2.27E2,2.110285E-2,-3.0098524E-2,2E0,1E0,1E0,3.0445332E-2,1.47E2,6.7E1,3.0723235E-2,-4.613535E-4,-2.4277594E-2,1.8671058E-2,2.4634218E-2,-3.8507183E-3,7.5705145E-3,3.1274144E-2,2.1815123E-2,-7.978079E-3,2.6006728E-2,-1.8566765E-2,2.9155483E-2,2.1543892E-3,-3.0872697E-2,-5.9030997E-4],"split_indices":[2,11,9,12,3,0,10,8,9,7,4,4,1,0,7,4,6,0,0,0,0,0,4,0,12,0,4,0,0,0,0,0,10,0,4,0,0,12,11,11,0,7,0,0,0,0,0,0,0,0,0,0,0,0,0,0,0,0,0],"split_type":[0,0,0,0,0,0,0,0,0,0,0,0,0,0,0,0,0,0,0,0,0,0,0,0,0,0,0,0,0,0,0,0,0,0,0,0,0,0,0,0,0,0,0,0,0,0,0,0,0,0,0,0,0,0,0,0,0,0,0],"sum_hessian":[1.9937744E2,9.6615555E1,1.0276188E2,4.1161297E1,5.545426E1,9.290412E1,9.857759E0,2.3572113E1,1.7589182E1,2.9793134E0,5.247495E1,5.695375E1,3.595037E1,2.2000208E0,7.657738E0,1.496843E1,8.603683E0,6.166328E0,1.1422854E1,1.4953539E0,1.4839593E0,4.417758E1,8.297365E0,1.244362E0,5.570939E1,1.5006524E1,2.0943846E1,4.9543734E0,2.703365E0,1.3721549E1,1.24688E0,2.4392552E0,6.164428E0,1.9754034E0,4.190924E0,1.4745235E0,6.822842E0,4.544916E1,1.0260225E1,5.1458783E0,9.860646E0,1.2110548E1,8.833299E0,1.2222103E1,1.4994459E0,4.952239E0,1.212189E0,2.4417474E0,1.7491767E0,2.9471843E0,4.250198E1,7.7921977E0,2.468028E0,3.1561809E0,1.9896975E0,4.180933E0,7.929615E0,7.3424683E0,1.4908303E0],"tree_param":{"num_deleted":"0","num_feature":"13","num_nodes":"59","size_leaf_vector":"1"}},{"base_weights":[-2.9175195E-3,-8.569607E-1,8.001137E-1,-3.218092E-2,-1.4582515E0,9.5576066E-1,-6.164009E-1,7.242737E-1,-1.0303746E0,-9.8354375E-1,-3.1871434E-2,1.3342528E0,4.4300634E-1,2.4048934E-2,-1.2168646E0,1.1656178E0,-8.321688E-2,2.039344E-2,-3.109937E-2,1.97301E-2,-1.2298977E0,-1.2060399E-2,1.392132E0,1.205449E0,-7.187147E-2,-3.9903212E-1,-3.0419786E-2,1.3576791E0,-1.2108638E-2,2.4865424E-2,-7.080116E-1,-9.1873664E-1,9.0225536E-1,-1.4155663E0,4.126375E-3,1.5434383E0,6.266175E-1,-1.0996244E-3,1.3302394E0,8.125429E-1,-1.3542494E0,5.9667146E-3,-1.9822206E-2,3.0338118E-2,-4.5581377E-4,-2.391403E-2,1.8500498E-2,-4.3271566E-3,-2.3120413E-2,2.3777787E-2,2.3560221E-3,-3.5609852E-3,-3.0745346E-2,1.4140323E-2,3.2069203E-2,1.999453E-2,-7.861184E-3,9.0823155E-3,3.0502511E-2,2.4330735E-2,-9.982291E-4,-3.126789E-2,-5.8324024E-4],"categories":[],"categories_nodes":[],"categories_segments":[],"categories_sizes":[],"default_left":[0,0,0,0,0,0,0,0,0,0,0,0,0,0,0,0,0,0,0,0,0,0,0,0,0,0,0,0,0,0,0,0,0,0,0,0,0,0,0,0,0,0,0,0,0,0,0,0,0,0,0,0,0,0,0,0,0,0,0,0,0,0,0],"id":12,"left_children":[1,3,5,7,9,11,13,15,17,19,-1,21,23,-1,25,27,29,31,-1,-1,33,-1,35,37,39,41,-1,43,-1,-1,45,47,49,51,-1,53,55,-1,57,59,61,-1,-1,-1,-1,-1,-1,-1,-1,-1,-1,-1,-1,-1,-1,-1,-1,-1,-1,-1,-1,-1,-1],"loss_changes":[1.3747816E2,4.8128662E1,2.3367836E1,3.2445965E1,2.0402298E0,1.7550812E1,1.329821E1,8.817595E0,1.023579E1,8.527245E0,0E0,6.8140793E0,1.6258614E1,0E0,1.5430069E0,6.226532E0,8.820924E0,6.751599E0,0E0,0E0,3.982664E0,0E0,5.0605316E0,2.6938896E0,3.0059595E1,1.8228705E0,0E0,3.2531414E0,0E0,0E0,6.8007708E0,4.0965915E-1,8.026757E-1,1.5912476E0,0E0,1.0134659E0,4.3008895E0,0E0,1.902832E0,5.543803E0,2.9466553E0,0E0,0E0,0E0,0E0,0E0,0E0,0E0,0E0,0E0,0E0,0E0,0E0,0E0,0E0,0E0,0E0,0E0,0E0,0E0,0E0,0E0,0E0],"parents":[2147483647,0,0,1,1,2,2,3,3,4,4,5,5,6,6,7,7,8,8,9,9,11,11,12,12,14,14,15,15,16,16,17,17,20,20,22,22,23,23,24,24,25,25,27,27,30,30,31,31,32,32,33,33,35,35,36,36,38,38,39,39,40,40],"right_children":[2,4,6,8,10,12,14,16,18,20,-1,22,24,-1,26,28,30,32,-1,-1,34,-1,36,38,40,42,-1,44,-1,-1,46,48,50,52,-1,54,56,-1,58,60,62,-1,-1,-1,-1,-1,-1,-1,-1,-1,-1,-1,-1,-1,-1,-1,-1,-1,-1,-1,-1,-1,-1],"split_conditions":[1E0,1E0,2E0,3E0,4E-1,5.6E1,1E0,1E0,6E-1,1E0,-3.1871434E-2,1.57E2,1E0,2.4048934E-2,2.5E0,3.04E2,1E0,4.9E1,-3.109937E-2,1.97301E-2,2E-1,-1.2060399E-2,3E0,9.9E1,2.46E2,2E0,-3.0419786E-2,6.7E1,-1.2108638E-2,2.4865424E-2,2E0,1.12E2,1.36E2,1.1E2,4.126375E-3,1.1E2,1E0,-1.0996244E-3,5.9E1,1E0,6.7E1,5.9667146E-3,-1.9822206E-2,3.0338118E-2,-4.5581377E-4,-2.391403E-2,1.8500498E-2,-4.3271566E-3,-2.3120413E-2,2.3777787E-2,2.3560221E-3,-3.5609852E-3,-3.0745346E-2,1.4140323E-2,3.2069203E-2,1.999453E-2,-7.861184E-3,9.0823155E-3,3.0502511E-2,2.4330735E-2,-9.982291E-4,-3.126789E-2,-5.8324024E-4],"split_indices":[2,11,9,12,9,0,10,8,9,1,0,4,1,0,9,4,6,0,0,0,9,0,12,7,4,11,0,0,0,0,10,3,3,3,0,3,11,0,0,11,0,0,0,0,0,0,0,0,0,0,0,0,0,0,0,0,0,0,0,0,0,0,0],"split_type":[0,0,0,0,0,0,0,0,0,0,0,0,0,0,0,0,0,0,0,0,0,0,0,0,0,0,0,0,0,0,0,0,0,0,0,0,0,0,0,0,0,0,0,0,0,0,0,0,0,0,0,0,0,0,0,0,0,0,0,0,0,0,0],"sum_hessian":[1.9845735E2,9.614143E1,1.0231591E2,4.098144E1,5.5159992E1,9.247951E1,9.8364E0,2.3469852E1,1.751159E1,1.4070061E1,4.108993E1,5.228382E1,4.019569E1,2.1925323E0,7.643868E0,1.4888725E1,8.581127E0,6.151395E0,1.1360194E1,1.22995E0,1.2840111E1,1.2435169E0,5.1040302E1,1.5661926E1,2.4533766E1,2.6987178E0,4.9451504E0,1.3642653E1,1.2460711E0,2.4306915E0,6.150436E0,2.9587202E0,3.1926744E0,1.1382945E1,1.4571654E0,4.1768436E1,9.271868E0,1.4613329E0,1.4200593E1,1.47367115E1,9.797053E0,1.4669822E0,1.2317356E0,1.2143194E1,1.4994591E0,4.942279E0,1.2081571E0,1.2299081E0,1.7288122E0,1.9606895E0,1.2319849E0,1.2397321E0,1.0143213E1,3.6522691E0,3.8116165E1,6.80238E0,2.4694881E0,3.1899805E0,1.10106125E1,9.75615E0,4.9805613E0,8.306202E0,1.4908514E0],"tree_param":{"num_deleted":"0","num_feature":"13","num_nodes":"63","size_leaf_vector":"1"}},{"base_weights":[-2.7749522E-3,-8.44478E-1,7.8834593E-1,-3.155588E-2,-1.4376229E0,1.0651057E0,-9.540377E-3,7.145187E-1,-1.0158021E0,-9.68596E-1,-3.1429414E-2,1.4059455E0,5.2658635E-1,-1.1933912E0,3.1607774E-1,-2.2533063E-2,8.830021E-1,1.9833282E-2,-3.0695263E-2,1.953916E-2,-1.2126957E0,-1.19316755E-2,1.4746162E0,1.301866E0,-1.6912079E-1,-2.803743E-2,-3.952696E-3,6.034936E-1,-9.7356117E-1,1.3082994E0,5.7349548E-2,-2.3462785E-2,6.9962496E-1,-1.3968422E0,4.075742E-3,1.527718E0,-1.1801913E-3,4.6964443E-1,3.0124974E-2,4.77759E-1,-2.878421E-2,1.045998E0,-5.306781E-1,-2.3406453E-2,-6.977338E-3,3.0472705E-2,-1.1979086E-2,2.4579333E-2,-1.1553526E-2,2.4223931E-2,-3.8570452E-3,-3.5218506E-3,-3.0349575E-2,1.3944056E-2,3.172432E-2,-9.10332E-3,2.1849401E-2,2.378802E-2,-2.0408817E-2,9.276357E-3,2.9574314E-2,-2.3668854E-2,7.86005E-3],"categories":[],"categories_nodes":[],"categories_segments":[],"categories_sizes":[],"default_left":[0,0,0,0,0,0,0,0,0,0,0,0,0,0,0,0,0,0,0,0,0,0,0,0,0,0,0,0,0,0,0,0,0,0,0,0,0,0,0,0,0,0,0,0,0,0,0,0,0,0,0,0,0,0,0,0,0,0,0,0,0,0,0],"id":13,"left_children":[1,3,5,7,9,11,13,15,17,19,-1,21,23,25,27,-1,29,31,-1,-1,33,-1,35,37,39,-1,-1,41,43,45,47,-1,49,51,-1,53,-1,55,-1,57,-1,59,61,-1,-1,-1,-1,-1,-1,-1,-1,-1,-1,-1,-1,-1,-1,-1,-1,-1,-1,-1,-1],"loss_changes":[1.3284082E2,4.6559998E1,2.2719318E1,3.1417654E1,1.9846115E0,1.3275978E1,1.0968659E1,8.552006E0,9.9381485E0,8.312317E0,0E0,7.228241E0,1.7046904E1,9.9683E-1,8.867917E0,0E0,7.9592037E0,6.612009E0,0E0,0E0,3.8793888E0,0E0,3.748619E0,1.8218174E0,1.492371E1,0E0,0E0,1.0033218E1,1.3917923E-1,7.095827E0,7.275471E0,0E0,2.5964918E0,1.5475788E0,0E0,1.0053864E0,0E0,3.0229163E0,0E0,1.4254246E1,0E0,2.821288E0,4.060904E0,0E0,0E0,0E0,0E0,0E0,0E0,0E0,0E0,0E0,0E0,0E0,0E0,0E0,0E0,0E0,0E0,0E0,0E0,0E0,0E0],"parents":[2147483647,0,0,1,1,2,2,3,3,4,4,5,5,6,6,7,7,8,8,9,9,11,11,12,12,13,13,14,14,16,16,17,17,20,20,22,22,23,23,24,24,27,27,28,28,29,29,30,30,32,32,33,33,35,35,37,37,39,39,41,41,42,42],"right_children":[2,4,6,8,10,12,14,16,18,20,-1,22,24,26,28,-1,30,32,-1,-1,34,-1,36,38,40,-1,-1,42,44,46,48,-1,50,52,-1,54,-1,56,-1,58,-1,60,62,-1,-1,-1,-1,-1,-1,-1,-1,-1,-1,-1,-1,-1,-1,-1,-1,-1,-1,-1,-1],"split_conditions":[1E0,1E0,3E0,3E0,4E-1,5.6E1,1.42E2,1.18E2,6E-1,1E0,-3.1429414E-2,1.57E2,1E0,2.82E2,2E0,-2.2533063E-2,1E0,4.2E1,-3.0695263E-2,1.953916E-2,2E-1,-1.19316755E-2,2.5E0,2E0,2.46E2,-2.803743E-2,-3.952696E-3,1.52E2,3E0,3.04E2,1E0,-2.3462785E-2,2.27E2,1.1E2,4.075742E-3,1.1E2,-1.1801913E-3,1.38E2,3.0124974E-2,1E0,-2.878421E-2,2E0,3E0,-2.3406453E-2,-6.977338E-3,3.0472705E-2,-1.1979086E-2,2.4579333E-2,-1.1553526E-2,2.4223931E-2,-3.8570452E-3,-3.5218506E-3,-3.0349575E-2,1.3944056E-2,3.172432E-2,-9.10332E-3,2.1849401E-2,2.378802E-2,-2.0408817E-2,9.276357E-3,2.9574314E-2,-2.3668854E-2,7.86005E-3],"split_indices":[2,11,12,12,9,0,7,7,9,1,0,4,1,4,9,0,8,0,0,0,9,0,9,2,4,0,0,3,2,4,6,0,4,3,0,3,0,3,0,11,0,10,2,0,0,0,0,0,0,0,0,0,0,0,0,0,0,0,0,0,0,0,0],"split_type":[0,0,0,0,0,0,0,0,0,0,0,0,0,0,0,0,0,0,0,0,0,0,0,0,0,0,0,0,0,0,0,0,0,0,0,0,0,0,0,0,0,0,0,0,0,0,0,0,0,0,0,0,0,0,0,0,0,0,0,0,0,0,0],"sum_hessian":[1.974942E2,9.56554E1,1.018388E2,4.0796215E1,5.4859184E1,7.536301E1,2.6475786E1,2.3361708E1,1.7434507E1,1.4008269E1,4.0850918E1,4.5165863E1,3.0197147E1,5.136391E0,2.1339396E1,1.4817913E0,2.1879917E1,6.141117E0,1.1293391E1,1.2269318E0,1.2781338E1,1.2425913E0,4.392327E1,1.3869745E1,1.6327402E1,3.9099278E0,1.2264631E0,1.7885403E1,3.4539924E0,1.4055369E1,7.824547E0,1.9657211E0,4.175396E0,1.1323161E1,1.4581757E0,4.2457047E1,1.4662247E0,3.3848622E0,1.0484883E1,1.1231058E1,5.096344E0,1.2921672E1,4.963732E0,1.9624438E0,1.4915485E0,1.2810189E1,1.2451801E0,2.4215345E0,5.4030123E0,2.427071E0,1.7483249E0,1.2395511E0,1.0083611E1,3.643764E0,3.8813282E1,1.4705256E0,1.9143364E0,7.7540245E0,3.4770334E0,6.3927336E0,6.5289383E0,2.7436037E0,2.220128E0],"tree_param":{"num_deleted":"0","num_feature":"13","num_nodes":"63","size_leaf_vector":"1"}},{"base_weights":[-3.008494E-3,-8.327131E-1,7.765603E-1,-3.1653374E-2,-1.417801E0,9.292117E-1,-6.0534453E-1,7.0364213E-1,-1.0021133E0,-9.5412403E-1,-3.1005658E-2,1.2643272E0,3.8134497E-1,2.3687057E-2,-1.1963621E0,-2.2285895E-2,8.706258E-1,1.9054292E-2,-3.0307252E-2,1.9352043E-2,-1.1960669E0,-1.1804785E-2,1.316217E0,1.1506063E0,-1.9367634E-1,-3.932138E-1,-2.9881164E-2,1.2911134E0,5.7767E-2,-9.009813E-1,8.8348585E-1,-1.3787953E0,4.0257536E-3,1.4395906E0,6.9517523E-1,4.0242124E-1,2.9402902E-2,6.223406E-1,-1.2683524E0,5.7790945E-3,-1.9411197E-2,3.0101977E-2,-1.1851387E-2,2.430114E-2,-1.1361995E-2,-4.2373356E-3,-2.2673348E-2,2.3375439E-2,2.1918486E-3,-3.4831585E-3,-2.9969277E-2,7.1836226E-3,3.0102568E-2,2.0967707E-2,-7.864425E-3,2.5205625E-2,-1.831022E-2,2.8471023E-2,1.7865637E-3,-2.9762244E-2,-6.110953E-4],"categories":[],"categories_nodes":[],"categories_segments":[],"categories_sizes":[],"default_left":[0,0,0,0,0,0,0,0,0,0,0,0,0,0,0,0,0,0,0,0,0,0,0,0,0,0,0,0,0,0,0,0,0,0,0,0,0,0,0,0,0,0,0,0,0,0,0,0,0,0,0,0,0,0,0,0,0,0,0,0,0],"id":14,"left_children":[1,3,5,7,9,11,13,15,17,19,-1,21,23,-1,25,-1,27,29,-1,-1,31,-1,33,35,37,39,-1,41,43,45,47,49,-1,51,53,55,-1,57,59,-1,-1,-1,-1,-1,-1,-1,-1,-1,-1,-1,-1,-1,-1,-1,-1,-1,-1,-1,-1,-1,-1],"loss_changes":[1.2837828E2,4.5017723E1,2.2149612E1,3.0393852E1,1.9326096E0,1.6509499E1,1.2824875E1,8.334121E0,9.6449585E0,8.104988E0,0E0,6.261345E0,1.6393204E1,0E0,1.4699745E0,0E0,7.7111797E0,6.4622617E0,0E0,0E0,3.7805424E0,0E0,3.270813E0,3.181244E0,1.9885132E1,1.7314845E0,0E0,6.924387E0,7.073541E0,3.9260864E-1,7.943802E-1,1.5064011E0,0E0,2.6865463E0,4.7076774E0,8.050169E0,0E0,5.4450073E0,2.6005144E0,0E0,0E0,0E0,0E0,0E0,0E0,0E0,0E0,0E0,0E0,0E0,0E0,0E0,0E0,0E0,0E0,0E0,0E0,0E0,0E0,0E0,0E0],"parents":[2147483647,0,0,1,1,2,2,3,3,4,4,5,5,6,6,7,7,8,8,9,9,11,11,12,12,14,14,16,16,17,17,20,20,22,22,23,23,24,24,25,25,27,27,28,28,29,29,30,30,31,31,33,33,34,34,35,35,37,37,38,38],"right_children":[2,4,6,8,10,12,14,16,18,20,-1,22,24,-1,26,-1,28,30,-1,-1,32,-1,34,36,38,40,-1,42,44,46,48,50,-1,52,54,56,-1,58,60,-1,-1,-1,-1,-1,-1,-1,-1,-1,-1,-1,-1,-1,-1,-1,-1,-1,-1,-1,-1,-1,-1],"split_conditions":[1E0,1E0,2E0,3E0,4E-1,5.7E1,1E0,1.18E2,6E-1,1E0,-3.1005658E-2,1.57E2,1E0,2.3687057E-2,2.5E0,-2.2285895E-2,1E0,4.9E1,-3.0307252E-2,1.9352043E-2,2E-1,-1.1804785E-2,3E0,6.3E1,2.46E2,1E0,-2.9881164E-2,3.04E2,1E0,1.12E2,1.36E2,1.1E2,4.0257536E-3,2E0,1E0,1E0,2.9402902E-2,1.47E2,6.7E1,5.7790945E-3,-1.9411197E-2,3.0101977E-2,-1.1851387E-2,2.430114E-2,-1.1361995E-2,-4.2373356E-3,-2.2673348E-2,2.3375439E-2,2.1918486E-3,-3.4831585E-3,-2.9969277E-2,7.1836226E-3,3.0102568E-2,2.0967707E-2,-7.864425E-3,2.5205625E-2,-1.831022E-2,2.8471023E-2,1.7865637E-3,-2.9762244E-2,-6.110953E-4],"split_indices":[2,11,9,12,9,0,10,7,9,1,0,4,1,0,9,0,8,0,0,0,9,0,12,0,4,6,0,4,6,3,3,3,0,12,11,11,0,7,0,0,0,0,0,0,0,0,0,0,0,0,0,0,0,0,0,0,0,0,0,0,0],"split_type":[0,0,0,0,0,0,0,0,0,0,0,0,0,0,0,0,0,0,0,0,0,0,0,0,0,0,0,0,0,0,0,0,0,0,0,0,0,0,0,0,0,0,0,0,0,0,0,0,0,0,0,0,0,0,0,0,0,0,0,0,0],"sum_hessian":[1.9647878E2,9.514578E1,1.01333E2,4.060562E1,5.454016E1,9.1547806E1,9.785193E0,2.3258286E1,1.7347336E1,1.3942906E1,4.0597256E1,5.599154E1,3.5556263E1,2.1799698E0,7.6052237E0,1.4793756E0,2.177891E1,6.124609E0,1.1222728E1,1.2237207E0,1.2719185E1,1.2415884E0,5.474995E1,1.47811365E1,2.0775127E1,2.6842623E0,4.9209614E0,1.3966007E1,7.8129025E0,2.946401E0,3.178208E0,1.1260023E1,1.4591627E0,4.4576527E1,1.0173424E1,5.099733E0,9.681403E0,1.2047894E1,8.727234E0,1.4594032E0,1.2248591E0,1.2721797E1,1.2442098E0,2.411816E0,5.401087E0,1.226013E0,1.7203878E0,1.9493539E0,1.2288542E0,1.2393644E0,1.00206585E1,2.9199986E0,4.165653E1,7.7085724E0,2.464851E0,3.1155334E0,1.9841996E0,4.145588E0,7.902306E0,7.2396708E0,1.4875636E0],"tree_param":{"num_deleted":"0","num_feature":"13","num_nodes":"61","size_leaf_vector":"1"}},{"base_weights":[-3.0049575E-3,-8.213009E-1,7.6548666E-1,-3.1706486E-2,-1.3987362E0,1.0370365E0,-1.222927E-2,6.9309276E-1,-9.884837E-1,-9.4010127E-1,-3.0599015E-2,1.3710817E0,5.112112E-1,-1.1683773E0,3.0544823E-1,-2.2044582E-2,8.5862947E-1,1.8517846E-2,-2.9934391E-2,1.9168623E-2,-1.1799785E0,-1.1679685E-2,1.4389789E0,1.2703736E0,-1.6732596E-1,-2.7462766E-2,-3.8512766E-3,5.858064E-1,-9.515199E-1,1.274536E0,5.8174808E-2,-2.303029E-2,6.85136E-1,-1.3613862E0,3.976408E-3,1.491658E0,-1.3335982E-3,4.280894E-1,2.9284542E-2,4.6326962E-1,-2.815983E-2,1.0200135E0,-5.217329E-1,-2.2926645E-2,-6.7616897E-3,2.9745502E-2,-1.1725499E-2,2.4030482E-2,-1.1174179E-2,2.3832059E-2,-3.8625635E-3,-3.444902E-3,-2.9603543E-2,1.3337669E-2,3.1012665E-2,-4.7293133E-3,1.9846553E-2,2.3275273E-2,-2.0070458E-2,8.8569475E-3,2.9052543E-2,-2.3338253E-2,7.826681E-3],"categories":[],"categories_nodes":[],"categories_segments":[],"categories_sizes":[],"default_left":[0,0,0,0,0,0,0,0,0,0,0,0,0,0,0,0,0,0,0,0,0,0,0,0,0,0,0,0,0,0,0,0,0,0,0,0,0,0,0,0,0,0,0,0,0,0,0,0,0,0,0,0,0,0,0,0,0,0,0,0,0,0,0],"id":15,"left_children":[1,3,5,7,9,11,13,15,17,19,-1,21,23,25,27,-1,29,31,-1,-1,33,-1,35,37,39,-1,-1,41,43,45,47,-1,49,51,-1,53,-1,55,-1,57,-1,59,61,-1,-1,-1,-1,-1,-1,-1,-1,-1,-1,-1,-1,-1,-1,-1,-1,-1,-1,-1,-1],"loss_changes":[1.2415546E2,4.3550575E1,2.1515095E1,2.9402689E1,1.8838654E0,1.2556709E1,1.0397766E1,8.123557E0,9.373817E0,7.9048624E0,0E0,6.8883133E0,1.6138195E1,9.5440197E-1,8.394256E0,0E0,7.4741096E0,6.3368096E0,0E0,0E0,3.6858444E0,0E0,3.6148605E0,1.7746468E0,1.4115629E1,0E0,0E0,9.573987E0,1.4264011E-1,6.7596245E0,6.8783636E0,0E0,2.524586E0,1.4675274E0,0E0,1.0509415E0,0E0,1.7963365E0,0E0,1.3664025E1,0E0,2.8136644E0,3.9657626E0,0E0,0E0,0E0,0E0,0E0,0E0,0E0,0E0,0E0,0E0,0E0,0E0,0E0,0E0,0E0,0E0,0E0,0E0,0E0,0E0],"parents":[2147483647,0,0,1,1,2,2,3,3,4,4,5,5,6,6,7,7,8,8,9,9,11,11,12,12,13,13,14,14,16,16,17,17,20,20,22,22,23,23,24,24,27,27,28,28,29,29,30,30,32,32,33,33,35,35,37,37,39,39,41,41,42,42],"right_children":[2,4,6,8,10,12,14,16,18,20,-1,22,24,26,28,-1,30,32,-1,-1,34,-1,36,38,40,-1,-1,42,44,46,48,-1,50,52,-1,54,-1,56,-1,58,-1,60,62,-1,-1,-1,-1,-1,-1,-1,-1,-1,-1,-1,-1,-1,-1,-1,-1,-1,-1,-1,-1],"split_conditions":[1E0,1E0,3E0,3E0,4E-1,5.6E1,1.42E2,1.18E2,6E-1,1E0,-3.0599015E-2,1.57E2,1E0,2.82E2,2E0,-2.2044582E-2,1E0,4.2E1,-2.9934391E-2,1.9168623E-2,2E-1,-1.1679685E-2,1.5E2,5.9E1,2.46E2,-2.7462766E-2,-3.8512766E-3,1.52E2,3E0,3.04E2,1E0,-2.303029E-2,2.27E2,1.1E2,3.976408E-3,1.1E2,-1.3335982E-3,2E0,2.9284542E-2,1E0,-2.815983E-2,2E0,3E0,-2.2926645E-2,-6.7616897E-3,2.9745502E-2,-1.1725499E-2,2.4030482E-2,-1.1174179E-2,2.3832059E-2,-3.8625635E-3,-3.444902E-3,-2.9603543E-2,1.3337669E-2,3.1012665E-2,-4.7293133E-3,1.9846553E-2,2.3275273E-2,-2.0070458E-2,8.8569475E-3,2.9052543E-2,-2.3338253E-2,7.826681E-3],"split_indices":[2,11,12,12,9,0,7,7,9,1,0,4,1,4,9,0,8,0,0,0,9,0,3,0,4,0,0,3,2,4,6,0,4,3,0,3,0,2,0,11,0,10,2,0,0,0,0,0,0,0,0,0,0,0,0,0,0,0,0,0,0,0,0],"split_type":[0,0,0,0,0,0,0,0,0,0,0,0,0,0,0,0,0,0,0,0,0,0,0,0,0,0,0,0,0,0,0,0,0,0,0,0,0,0,0,0,0,0,0,0,0,0,0,0,0,0,0,0,0,0,0,0,0,0,0,0,0,0,0],"sum_hessian":[1.9543166E2,9.461555E1,1.0081611E2,4.041134E1,5.4204212E1,7.447776E1,2.6338345E1,2.3149904E1,1.7261435E1,1.3874208E1,4.033E1,4.456141E1,2.9916355E1,5.0999255E0,2.123842E1,1.4766324E0,2.1673271E1,6.112968E0,1.1148466E1,1.2203244E0,1.2653884E1,1.2405107E0,4.33209E1,1.3707679E1,1.6208675E1,3.8788323E0,1.221093E0,1.7801802E1,3.4366183E0,1.3872846E1,7.8004265E0,1.95471E0,4.158258E0,1.1193758E1,1.4601264E0,4.1865433E1,1.455465E0,3.164856E0,1.0542823E1,1.116196E1,5.0467157E0,1.2844994E1,4.956808E0,1.9489647E0,1.4876537E0,1.2629683E1,1.2431631E0,2.401566E0,5.3988605E0,2.4110892E0,1.7471689E0,1.2391722E0,9.954585E0,3.6151505E0,3.8250282E1,1.7199843E0,1.4448715E0,7.694095E0,3.467865E0,6.370083E0,6.4749103E0,2.7415762E0,2.2152321E0],"tree_param":{"num_deleted":"0","num_feature":"13","num_nodes":"63","size_leaf_vector":"1"}},{"base_weights":[-3.223061E-3,-8.103496E-1,7.544102E-1,-3.1806834E-2,-1.3803828E0,9.0449387E-1,-5.9726053E-1,6.8285316E-1,-9.756864E-1,-9.265033E-1,-3.0208437E-2,1.231962E0,3.711773E-1,2.3230478E-2,-1.1769892E0,-2.1808906E-2,8.469927E-1,1.7769266E-2,-2.9575808E-2,1.8988779E-2,-1.1644008E0,2.9229453E-1,1.3532754E0,1.1227456E0,-1.8775712E-1,-3.8762864E-1,-2.937267E-2,1.2585323E0,5.8573417E-2,-8.8395506E-1,8.6543024E-1,-1.3445787E0,3.9276863E-3,2.3174936E-2,-3.1117544E-1,1.398423E0,-1.595656E-3,3.883394E-1,2.876507E-2,6.078823E-1,-1.2406387E0,5.6384616E-3,-1.9055983E-2,2.9402455E-2,-1.1601384E-2,2.3767037E-2,-1.0989977E-2,-4.1502295E-3,-2.2246037E-2,2.2991251E-2,2.032526E-3,-3.4070765E-3,-2.9251536E-2,1.6894866E-2,-1.6683528E-2,1.875581E-2,2.9373506E-2,2.4651948E-2,-1.7986072E-2,2.7967032E-2,1.6877503E-3,-2.9128723E-2,-6.373467E-4],"categories":[],"categories_nodes":[],"categories_segments":[],"categories_sizes":[],"default_left":[0,0,0,0,0,0,0,0,0,0,0,0,0,0,0,0,0,0,0,0,0,0,0,0,0,0,0,0,0,0,0,0,0,0,0,0,0,0,0,0,0,0,0,0,0,0,0,0,0,0,0,0,0,0,0,0,0,0,0,0,0,0,0],"id":16,"left_children":[1,3,5,7,9,11,13,15,17,19,-1,21,23,-1,25,-1,27,29,-1,-1,31,33,35,37,39,41,-1,43,45,47,49,51,-1,-1,53,55,-1,57,-1,59,61,-1,-1,-1,-1,-1,-1,-1,-1,-1,-1,-1,-1,-1,-1,-1,-1,-1,-1,-1,-1,-1,-1],"loss_changes":[1.2005345E2,4.21412E1,2.1084057E1,2.845971E1,1.8381042E0,1.5530724E1,1.2300485E1,7.919978E0,9.105797E0,7.7115746E0,0E0,6.020981E0,1.5442009E1,0E0,1.4016647E0,0E0,7.2473125E0,6.1881247E0,0E0,0E0,3.5950336E0,4.3927603E0,3.3191376E0,3.0578976E0,1.8891184E1,1.6567669E0,0E0,6.6011524E0,6.689665E0,3.7662578E-1,7.865119E-1,1.4307804E0,0E0,0E0,3.9292548E0,1.7975616E-1,0E0,7.696385E0,0E0,5.2626886E0,2.4701834E0,0E0,0E0,0E0,0E0,0E0,0E0,0E0,0E0,0E0,0E0,0E0,0E0,0E0,0E0,0E0,0E0,0E0,0E0,0E0,0E0,0E0,0E0],"parents":[2147483647,0,0,1,1,2,2,3,3,4,4,5,5,6,6,7,7,8,8,9,9,11,11,12,12,14,14,16,16,17,17,20,20,21,21,22,22,23,23,24,24,25,25,27,27,28,28,29,29,30,30,31,31,34,34,35,35,37,37,39,39,40,40],"right_children":[2,4,6,8,10,12,14,16,18,20,-1,22,24,-1,26,-1,28,30,-1,-1,32,34,36,38,40,42,-1,44,46,48,50,52,-1,-1,54,56,-1,58,-1,60,62,-1,-1,-1,-1,-1,-1,-1,-1,-1,-1,-1,-1,-1,-1,-1,-1,-1,-1,-1,-1,-1,-1],"split_conditions":[1E0,1E0,2E0,3E0,4E-1,5.7E1,1E0,1.18E2,6E-1,1E0,-3.0208437E-2,1.43E2,1E0,2.3230478E-2,2.5E0,-2.1808906E-2,1E0,4.9E1,-2.9575808E-2,1.8988779E-2,2E-1,3E-1,1.95E2,6.3E1,2.46E2,2E0,-2.937267E-2,3.04E2,1E0,1.12E2,1.36E2,1.1E2,3.9276863E-3,2.3174936E-2,1.26E2,1.12E2,-1.595656E-3,1E0,2.876507E-2,1.47E2,6.7E1,5.6384616E-3,-1.9055983E-2,2.9402455E-2,-1.1601384E-2,2.3767037E-2,-1.0989977E-2,-4.1502295E-3,-2.2246037E-2,2.2991251E-2,2.032526E-3,-3.4070765E-3,-2.9251536E-2,1.6894866E-2,-1.6683528E-2,1.875581E-2,2.9373506E-2,2.4651948E-2,-1.7986072E-2,2.7967032E-2,1.6877503E-3,-2.9128723E-2,-6.373467E-4],"split_indices":[2,11,9,12,9,0,10,7,9,1,0,7,1,0,9,0,8,0,0,0,9,9,7,0,4,11,0,4,6,3,3,3,0,0,7,3,0,11,0,7,0,0,0,0,0,0,0,0,0,0,0,0,0,0,0,0,0,0,0,0,0,0,0],"split_type":[0,0,0,0,0,0,0,0,0,0,0,0,0,0,0,0,0,0,0,0,0,0,0,0,0,0,0,0,0,0,0,0,0,0,0,0,0,0,0,0,0,0,0,0,0,0,0,0,0,0,0,0,0,0,0,0,0,0,0,0,0,0,0],"sum_hessian":[1.9432454E2,9.405534E1,1.002692E2,4.020278E1,5.3852562E1,9.054618E1,9.723022E0,2.3036901E1,1.7165882E1,1.3802408E1,4.0050156E1,5.5288086E1,3.5258095E1,2.1615953E0,7.561427E0,1.4735744E0,2.1563326E1,6.0950184E0,1.1070864E1,1.216751E0,1.2585657E1,6.7115254E0,4.857656E1,1.4607486E1,2.0650608E1,2.6683695E0,4.8930573E0,1.3776162E1,7.787164E0,2.9325814E0,3.1624367E0,1.1124589E1,1.4610677E0,2.3776274E0,4.333898E0,4.7116356E1,1.460202E0,5.060056E0,9.547429E0,1.2002916E1,8.647691E0,1.4507968E0,1.2175727E0,1.2534119E1,1.2420431E0,2.3908148E0,5.3963494E0,1.2218342E0,1.7107472E0,1.9368763E0,1.2255604E0,1.2389752E0,9.885614E0,1.1584179E0,3.1754804E0,8.133741E0,3.8982616E1,3.0820339E0,1.9780222E0,4.116252E0,7.8866644E0,7.1638637E0,1.4838277E0],"tree_param":{"num_deleted":"0","num_feature":"13","num_nodes":"63","size_leaf_vector":"1"}},{"base_weights":[-3.0525844E-3,-7.997038E-1,7.442689E-1,-3.186338E-2,-1.3626983E0,1.0118465E0,-1.7301513E-2,6.729079E-1,-9.6290076E-1,-9.133075E-1,-2.9832952E-2,1.339941E0,4.971639E-1,-1.1418118E0,2.9162094E-1,-2.1578657E-2,8.35697E-1,1.7254703E-2,-2.9230673E-2,1.8812405E-2,-1.1493058E0,-1.1460104E-2,1.4072282E0,1.2410738E0,-1.6500832E-1,-2.6849534E-2,-3.753223E-3,5.640824E-1,-9.279752E-1,1.2430708E0,5.8963332E-2,-2.2616897E-2,6.7119247E-1,-1.3283396E0,3.8795876E-3,1.4592772E0,-1.3150242E-3,4.363392E-1,2.882601E-2,4.484036E-1,-2.7507937E-2,1.2805445E0,-1.136466E-1,-2.2397289E-2,-6.5528643E-3,2.90721E-2,-1.1479003E-2,2.3510486E-2,-1.0809285E-2,2.345736E-2,-3.8673168E-3,-3.3696757E-3,-2.891249E-2,1.2900248E-2,3.0365145E-2,-9.042169E-3,2.0897502E-2,2.2788893E-2,-1.9793062E-2,2.9324237E-2,5.5358997E-3,1.0657018E-2,-2.2306357E-2],"categories":[],"categories_nodes":[],"categories_segments":[],"categories_sizes":[],"default_left":[0,0,0,0,0,0,0,0,0,0,0,0,0,0,0,0,0,0,0,0,0,0,0,0,0,0,0,0,0,0,0,0,0,0,0,0,0,0,0,0,0,0,0,0,0,0,0,0,0,0,0,0,0,0,0,0,0,0,0,0,0,0,0],"id":17,"left_children":[1,3,5,7,9,11,13,15,17,19,-1,21,23,25,27,-1,29,31,-1,-1,33,-1,35,37,39,-1,-1,41,43,45,47,-1,49,51,-1,53,-1,55,-1,57,-1,59,61,-1,-1,-1,-1,-1,-1,-1,-1,-1,-1,-1,-1,-1,-1,-1,-1,-1,-1,-1,-1],"loss_changes":[1.16211296E2,4.0798588E1,2.0541893E1,2.7545532E1,1.7950821E0,1.1922478E1,9.7714615E0,7.7230654E0,8.857832E0,7.524791E0,0E0,6.5904846E0,1.5284084E1,9.081359E-1,7.8708086E0,0E0,7.030164E0,6.0761776E0,0E0,0E0,3.5078678E0,0E0,3.4462433E0,1.7128811E0,1.329683E1,0E0,0E0,9.223384E0,1.4176226E-1,6.448614E0,6.507183E0,0E0,2.4560008E0,1.3960133E0,0E0,1.0498276E0,0E0,2.813324E0,0E0,1.31405735E1,0E0,1.3030205E0,7.410614E0,0E0,0E0,0E0,0E0,0E0,0E0,0E0,0E0,0E0,0E0,0E0,0E0,0E0,0E0,0E0,0E0,0E0,0E0,0E0,0E0],"parents":[2147483647,0,0,1,1,2,2,3,3,4,4,5,5,6,6,7,7,8,8,9,9,11,11,12,12,13,13,14,14,16,16,17,17,20,20,22,22,23,23,24,24,27,27,28,28,29,29,30,30,32,32,33,33,35,35,37,37,39,39,41,41,42,42],"right_children":[2,4,6,8,10,12,14,16,18,20,-1,22,24,26,28,-1,30,32,-1,-1,34,-1,36,38,40,-1,-1,42,44,46,48,-1,50,52,-1,54,-1,56,-1,58,-1,60,62,-1,-1,-1,-1,-1,-1,-1,-1,-1,-1,-1,-1,-1,-1,-1,-1,-1,-1,-1,-1],"split_conditions":[1E0,1E0,3E0,3E0,4E-1,5.6E1,1.42E2,1.18E2,6E-1,1E0,-2.9832952E-2,1.57E2,1E0,2.82E2,2E0,-2.1578657E-2,1E0,4.2E1,-2.9230673E-2,1.8812405E-2,2E-1,-1.1460104E-2,1.5E2,2E0,2.46E2,-2.6849534E-2,-3.753223E-3,1.26E2,3E0,3.04E2,1E0,-2.2616897E-2,2.27E2,1.1E2,3.8795876E-3,1.1E2,-1.3150242E-3,1.38E2,2.882601E-2,1E0,-2.7507937E-2,1.63E2,2.33E2,-2.2397289E-2,-6.5528643E-3,2.90721E-2,-1.1479003E-2,2.3510486E-2,-1.0809285E-2,2.345736E-2,-3.8673168E-3,-3.3696757E-3,-2.891249E-2,1.2900248E-2,3.0365145E-2,-9.042169E-3,2.0897502E-2,2.2788893E-2,-1.9793062E-2,2.9324237E-2,5.5358997E-3,1.0657018E-2,-2.2306357E-2],"split_indices":[2,11,12,12,9,0,7,7,9,1,0,4,1,4,9,0,8,0,0,0,9,0,3,2,4,0,0,3,2,4,6,0,4,3,0,3,0,3,0,11,0,7,4,0,0,0,0,0,0,0,0,0,0,0,0,0,0,0,0,0,0,0,0],"split_type":[0,0,0,0,0,0,0,0,0,0,0,0,0,0,0,0,0,0,0,0,0,0,0,0,0,0,0,0,0,0,0,0,0,0,0,0,0,0,0,0,0,0,0,0,0,0,0,0,0,0,0,0,0,0,0,0,0,0,0,0,0,0,0],"sum_hessian":[1.9319705E2,9.347829E1,9.971876E1,3.99919E1,5.3486385E1,7.3548775E1,2.6169985E1,2.2919603E1,1.7072298E1,1.3727722E1,3.9758663E1,4.393691E1,2.9611866E1,5.0589094E0,2.1111076E1,1.4702151E0,2.1449389E1,6.082133E0,1.0990165E1,1.2130082E0,1.2514714E1,1.2375684E0,4.269934E1,1.3533529E1,1.6078337E1,3.8435884E0,1.215321E0,1.7695362E1,3.4157133E0,1.3676228E1,7.77316E0,1.9424845E0,4.1396484E0,1.1052728E1,1.4619871E0,4.1251007E1,1.4483337E0,3.3298192E0,1.0203711E1,1.1088395E1,4.989942E0,8.1695E0,9.525863E0,1.932578E0,1.4831352E0,1.2435375E1,1.2408526E0,2.3795903E0,5.39357E0,2.3939223E0,1.745726E0,1.2387732E0,9.813954E0,3.5923257E0,3.765868E1,1.4580934E0,1.8717256E0,7.6296883E0,3.4587066E0,6.505431E0,1.6640692E0,6.0737734E0,3.4520895E0],"tree_param":{"num_deleted":"0","num_feature":"13","num_nodes":"63","size_leaf_vector":"1"}},{"base_weights":[-3.2758238E-3,-7.894751E-1,7.337673E-1,-3.1965863E-2,-1.3456438E0,8.8149434E-1,-5.896732E-1,6.6324157E-1,-9.509024E-1,-9.004924E-1,-2.947167E-2,1.2024983E0,3.6066857E-1,2.2797102E-2,-1.1586851E0,-2.1353643E-2,8.247246E-1,1.6534418E-2,-2.8898241E-2,1.8639391E-2,-1.1346674E0,2.8171855E-1,1.3220781E0,1.0966493E0,-1.8379241E-1,-2.8898954E-2,-7.6439492E-3,1.2281214E0,5.9344888E-2,-8.6761135E-1,8.4804356E-1,-1.3126372E0,3.8321E-3,2.2619775E-2,-3.0719057E-1,1.3667929E0,-1.6219488E-3,3.7357286E-1,2.8181044E-2,5.89827E-1,-1.2127669E0,2.8753724E-2,-1.1358316E-2,2.3260536E-2,-1.0632008E-2,-4.0657273E-3,-2.1837108E-2,2.2623995E-2,1.8778625E-3,-3.3326964E-3,-2.8585682E-2,-1.6462943E-2,1.6672721E-2,1.8213365E-2,2.874184E-2,2.4079597E-2,-1.7647153E-2,2.7437007E-2,1.5046567E-3,-2.849174E-2,-6.7093916E-4],"categories":[],"categories_nodes":[],"categories_segments":[],"categories_sizes":[],"default_left":[0,0,0,0,0,0,0,0,0,0,0,0,0,0,0,0,0,0,0,0,0,0,0,0,0,0,0,0,0,0,0,0,0,0,0,0,0,0,0,0,0,0,0,0,0,0,0,0,0,0,0,0,0,0,0,0,0,0,0,0,0],"id":18,"left_children":[1,3,5,7,9,11,13,15,17,19,-1,21,23,-1,25,-1,27,29,-1,-1,31,33,35,37,39,-1,-1,41,43,45,47,49,-1,-1,51,53,-1,55,-1,57,59,-1,-1,-1,-1,-1,-1,-1,-1,-1,-1,-1,-1,-1,-1,-1,-1,-1,-1,-1,-1],"loss_changes":[1.1242397E2,3.950661E1,2.0097939E1,2.6675241E1,1.75457E0,1.4694252E1,1.18062725E1,7.532526E0,8.611914E0,7.3441887E0,0E0,5.7443237E0,1.4599949E1,0E0,1.3400087E0,0E0,6.8220844E0,5.928218E0,0E0,0E0,3.4241352E0,4.176586E0,3.178772E0,2.9573784E0,1.7837765E1,0E0,0E0,6.301668E0,6.330668E0,3.616171E-1,7.7902436E-1,1.3630714E0,0E0,0E0,3.810277E0,2.1255493E-1,0E0,7.334189E0,0E0,5.1086545E0,2.3397589E0,0E0,0E0,0E0,0E0,0E0,0E0,0E0,0E0,0E0,0E0,0E0,0E0,0E0,0E0,0E0,0E0,0E0,0E0,0E0,0E0],"parents":[2147483647,0,0,1,1,2,2,3,3,4,4,5,5,6,6,7,7,8,8,9,9,11,11,12,12,14,14,16,16,17,17,20,20,21,21,22,22,23,23,24,24,27,27,28,28,29,29,30,30,31,31,34,34,35,35,37,37,39,39,40,40],"right_children":[2,4,6,8,10,12,14,16,18,20,-1,22,24,-1,26,-1,28,30,-1,-1,32,34,36,38,40,-1,-1,42,44,46,48,50,-1,-1,52,54,-1,56,-1,58,60,-1,-1,-1,-1,-1,-1,-1,-1,-1,-1,-1,-1,-1,-1,-1,-1,-1,-1,-1,-1],"split_conditions":[1E0,1E0,2E0,3E0,4E-1,5.7E1,1E0,1.18E2,6E-1,1E0,-2.947167E-2,1.43E2,1E0,2.2797102E-2,1.66E2,-2.1353643E-2,1E0,4.9E1,-2.8898241E-2,1.8639391E-2,2E-1,3E-1,1.95E2,6.3E1,2.46E2,-2.8898954E-2,-7.6439492E-3,3.04E2,1E0,1.12E2,1.36E2,1.1E2,3.8321E-3,2.2619775E-2,1.3E0,1.12E2,-1.6219488E-3,1E0,2.8181044E-2,1.47E2,6.7E1,2.8753724E-2,-1.1358316E-2,2.3260536E-2,-1.0632008E-2,-4.0657273E-3,-2.1837108E-2,2.2623995E-2,1.8778625E-3,-3.3326964E-3,-2.8585682E-2,-1.6462943E-2,1.6672721E-2,1.8213365E-2,2.874184E-2,2.4079597E-2,-1.7647153E-2,2.7437007E-2,1.5046567E-3,-2.849174E-2,-6.7093916E-4],"split_indices":[2,11,9,12,9,0,10,7,9,1,0,7,1,0,7,0,8,0,0,0,9,9,7,0,4,0,0,4,6,3,3,3,0,0,9,3,0,11,0,7,0,0,0,0,0,0,0,0,0,0,0,0,0,0,0,0,0,0,0,0,0],"split_type":[0,0,0,0,0,0,0,0,0,0,0,0,0,0,0,0,0,0,0,0,0,0,0,0,0,0,0,0,0,0,0,0,0,0,0,0,0,0,0,0,0,0,0,0,0,0,0,0,0,0,0,0,0,0,0,0,0,0,0,0,0],"sum_hessian":[1.9201445E2,9.287458E1,9.913987E1,3.9767788E1,5.3106792E1,8.948516E1,9.654711E0,2.2798317E1,1.696947E1,1.3650363E1,3.945643E1,5.4553204E1,3.4931957E1,2.1417081E0,7.5130024E0,1.4665675E0,2.133175E1,6.062867E0,1.0906602E1,1.2091036E0,1.2441259E1,6.6561236E0,4.789708E1,1.442229E1,2.050967E1,4.860308E0,2.6526945E0,1.3573294E1,7.7584567E0,2.9173858E0,3.1454816E0,1.09783745E1,1.4628849E0,2.3486445E0,4.307479E0,4.6443016E1,1.454064E0,5.013661E0,9.408628E0,1.1951152E1,8.558517E0,1.2333699E1,1.2395942E0,2.3679202E0,5.3905363E0,1.2173918E0,1.6999941E0,1.9233625E0,1.222119E0,1.2385665E0,9.739807E0,3.1577857E0,1.1496933E0,8.065505E0,3.837751E1,3.043017E0,1.9706438E0,4.0819573E0,7.8691945E0,7.0788813E0,1.479636E0],"tree_param":{"num_deleted":"0","num_feature":"13","num_nodes":"61","size_leaf_vector":"1"}},{"base_weights":[-3.0802307E-3,-7.795114E-1,7.2422254E-1,-3.2025445E-2,-1.3291826E0,9.885658E-1,-2.2980869E-2,6.5384054E-1,-9.3887484E-1,-8.880382E-1,-2.9123751E-2,1.3110521E0,4.84405E-1,-4.665527E-1,7.2143507E-1,-2.1133669E-2,8.1405926E-1,1.604018E-2,-2.8577806E-2,1.846963E-2,-1.120461E0,-1.12455655E-2,1.377829E0,1.2134045E0,-1.6182797E-1,-2.6359603E-2,-1.5186776E-1,-2.0887578E-1,1.0570536E0,1.2136564E0,5.971866E-2,-2.2221288E-2,6.5776205E-1,-1.2974423E0,3.7852176E-3,1.429529E0,-1.3955907E-3,3.9785403E-1,2.809207E-2,4.3570793E-1,-2.6897188E-2,9.498242E-1,-5.9908617E-1,1.6677838E-2,-2.0697322E-2,-5.36678E-3,2.7787047E-2,2.8446676E-2,-1.123929E-2,2.3016905E-2,-1.0458049E-2,2.3098683E-2,-3.8713505E-3,-3.2961317E-3,-2.8270435E-2,1.247939E-2,2.977396E-2,-4.848185E-3,1.8989485E-2,2.2327136E-2,-1.9456258E-2,2.3651298E-2,3.8103303E-3,-1.7678704E-2,1.7788751E-2],"categories":[],"categories_nodes":[],"categories_segments":[],"categories_sizes":[],"default_left":[0,0,0,0,0,0,0,0,0,0,0,0,0,0,0,0,0,0,0,0,0,0,0,0,0,0,0,0,0,0,0,0,0,0,0,0,0,0,0,0,0,0,0,0,0,0,0,0,0,0,0,0,0,0,0,0,0,0,0,0,0,0,0,0,0],"id":19,"left_children":[1,3,5,7,9,11,13,15,17,19,-1,21,23,25,27,-1,29,31,-1,-1,33,-1,35,37,39,-1,41,43,45,47,49,-1,51,53,-1,55,-1,57,-1,59,-1,61,63,-1,-1,-1,-1,-1,-1,-1,-1,-1,-1,-1,-1,-1,-1,-1,-1,-1,-1,-1,-1,-1,-1],"loss_changes":[1.08884544E2,3.827425E1,1.9687843E1,2.5830435E1,1.7163696E0,1.132563E1,9.2504425E0,7.348072E0,8.384356E0,7.1694794E0,0E0,6.314049E0,1.4463758E1,4.494792E0,3.4905233E0,0E0,6.6225452E0,5.829162E0,0E0,0E0,3.3436222E0,0E0,3.3214188E0,1.678627E0,1.2558221E1,0E0,7.4295754E0,3.9734824E0,3.83494E0,6.160013E0,6.1598825E0,0E0,2.3905075E0,1.3318329E0,0E0,1.0543365E0,0E0,1.6853712E0,0E0,1.2598092E1,0E0,5.535517E-1,5.2455754E0,0E0,0E0,0E0,0E0,0E0,0E0,0E0,0E0,0E0,0E0,0E0,0E0,0E0,0E0,0E0,0E0,0E0,0E0,0E0,0E0,0E0,0E0],"parents":[2147483647,0,0,1,1,2,2,3,3,4,4,5,5,6,6,7,7,8,8,9,9,11,11,12,12,13,13,14,14,16,16,17,17,20,20,22,22,23,23,24,24,26,26,27,27,28,28,29,29,30,30,32,32,33,33,35,35,37,37,39,39,41,41,42,42],"right_children":[2,4,6,8,10,12,14,16,18,20,-1,22,24,26,28,-1,30,32,-1,-1,34,-1,36,38,40,-1,42,44,46,48,50,-1,52,54,-1,56,-1,58,-1,60,-1,62,64,-1,-1,-1,-1,-1,-1,-1,-1,-1,-1,-1,-1,-1,-1,-1,-1,-1,-1,-1,-1,-1,-1],"split_conditions":[1E0,1E0,3E0,3E0,4E-1,5.6E1,2E0,1.18E2,6E-1,1E0,-2.9123751E-2,1.57E2,1E0,1.4E2,1E0,-2.1133669E-2,1E0,4.2E1,-2.8577806E-2,1.846963E-2,2E-1,-1.12455655E-2,2.5E0,5.9E1,2.46E2,-2.6359603E-2,1.48E2,1.66E2,1.42E2,3.04E2,1E0,-2.2221288E-2,2.27E2,1.1E2,3.7852176E-3,1.1E2,-1.3955907E-3,1.38E2,2.809207E-2,1E0,-2.6897188E-2,6E1,2.89E2,1.6677838E-2,-2.0697322E-2,-5.36678E-3,2.7787047E-2,2.8446676E-2,-1.123929E-2,2.3016905E-2,-1.0458049E-2,2.3098683E-2,-3.8713505E-3,-3.2961317E-3,-2.8270435E-2,1.247939E-2,2.977396E-2,-4.848185E-3,1.8989485E-2,2.2327136E-2,-1.9456258E-2,2.3651298E-2,3.8103303E-3,-1.7678704E-2,1.7788751E-2],"split_indices":[2,11,12,12,9,0,10,7,9,1,0,4,1,7,6,0,8,0,0,0,9,0,9,0,4,0,7,7,7,4,6,0,4,3,0,3,0,3,0,11,0,0,4,0,0,0,0,0,0,0,0,0,0,0,0,0,0,0,0,0,0,0,0,0,0],"split_type":[0,0,0,0,0,0,0,0,0,0,0,0,0,0,0,0,0,0,0,0,0,0,0,0,0,0,0,0,0,0,0,0,0,0,0,0,0,0,0,0,0,0,0,0,0,0,0,0,0,0,0,0,0,0,0,0,0,0,0,0,0,0,0,0,0],"sum_hessian":[1.908185E2,9.225742E1,9.856108E1,3.9542587E1,5.2714836E1,7.256592E1,2.599516E1,2.2673342E1,1.6869246E1,1.3570529E1,3.9144306E1,4.328086E1,2.9285055E1,1.6522959E1,9.472199E0,1.4626437E0,2.12107E1,6.04885E0,1.0820395E1,1.2050444E0,1.2365484E1,1.2342927E0,4.204657E1,1.3348867E1,1.5936188E1,3.5984793E0,1.292448E1,2.6113532E0,6.8608465E0,1.3467604E1,7.743095E0,1.9291528E0,4.119697E0,1.0901723E1,1.4637618E0,4.0608753E1,1.4378154E0,3.120282E0,1.0228585E1,1.10079155E1,4.928272E0,3.407208E0,9.517272E0,1.1499889E0,1.4613643E0,1.4139003E0,5.4469466E0,1.2229333E1,1.2382705E0,2.355831E0,5.387264E0,2.3756847E0,1.7440121E0,1.2383554E0,9.663367E0,3.568654E0,3.70401E1,1.7035401E0,1.4167417E0,7.5613976E0,3.4465182E0,2.181206E0,1.226002E0,8.329481E0,1.1877917E0],"tree_param":{"num_deleted":"0","num_feature":"13","num_nodes":"65","size_leaf_vector":"1"}},{"base_weights":[-2.999129E-3,-7.699269E-1,7.14809E-1,-3.2129664E-2,-1.3132817E0,8.604148E-1,-5.813026E-1,6.4469147E-1,-9.2759514E-1,-8.7592643E-1,-2.8788438E-2,1.1742486E0,3.5339803E-1,2.2396598E-2,-1.1405818E0,-2.0918556E-2,8.036855E-1,1.5346482E-2,-2.8268717E-2,1.8303027E-2,-1.1066643E0,2.7166378E-1,1.2922089E0,1.0726169E0,-1.756984E-1,-3.6920607E-1,-2.8509287E-2,1.1996497E0,6.0084727E-2,-2.1990692E-2,6.4994776E-1,-1.282728E0,3.7389265E-3,2.2094373E-2,-3.03321E-1,1.3365779E0,-1.6537836E-3,3.6344564E-1,2.7617771E-2,5.798327E-1,-1.187083E0,5.474566E-3,-1.8267425E-2,2.8150354E-2,-1.1121889E-2,-1.710201E-2,1.4724856E-2,2.2857852E-2,-3.8220633E-3,-3.2599764E-3,-2.7966138E-2,-1.6117156E-2,1.6297365E-2,1.7718693E-2,2.813502E-2,2.364788E-2,-1.734518E-2,2.6964588E-2,1.5329812E-3,-2.7901992E-2,-7.2250946E-4],"categories":[],"categories_nodes":[],"categories_segments":[],"categories_sizes":[],"default_left":[0,0,0,0,0,0,0,0,0,0,0,0,0,0,0,0,0,0,0,0,0,0,0,0,0,0,0,0,0,0,0,0,0,0,0,0,0,0,0,0,0,0,0,0,0,0,0,0,0,0,0,0,0,0,0,0,0,0,0,0,0],"id":20,"left_children":[1,3,5,7,9,11,13,15,17,19,-1,21,23,-1,25,-1,27,29,-1,-1,31,33,35,37,39,41,-1,43,45,-1,47,49,-1,-1,51,53,-1,55,-1,57,59,-1,-1,-1,-1,-1,-1,-1,-1,-1,-1,-1,-1,-1,-1,-1,-1,-1,-1,-1,-1],"loss_changes":[1.0546331E2,3.708648E1,1.9175762E1,2.5025724E1,1.6802673E0,1.3805092E1,1.1353705E1,7.169442E0,8.157962E0,7.0003824E0,0E0,5.4801865E0,1.373485E1,0E0,1.3341293E0,0E0,6.431053E0,5.68726E0,0E0,0E0,3.2661495E0,3.9738743E0,3.0491867E0,2.8274403E0,1.7017206E1,1.5210325E0,0E0,6.0233555E0,6.029987E0,0E0,2.3359072E0,1.3021698E0,0E0,0E0,3.623172E0,2.3130035E-1,0E0,7.043911E0,0E0,4.8857646E0,2.2158422E0,0E0,0E0,0E0,0E0,0E0,0E0,0E0,0E0,0E0,0E0,0E0,0E0,0E0,0E0,0E0,0E0,0E0,0E0,0E0,0E0],"parents":[2147483647,0,0,1,1,2,2,3,3,4,4,5,5,6,6,7,7,8,8,9,9,11,11,12,12,14,14,16,16,17,17,20,20,21,21,22,22,23,23,24,24,25,25,27,27,28,28,30,30,31,31,34,34,35,35,37,37,39,39,40,40],"right_children":[2,4,6,8,10,12,14,16,18,20,-1,22,24,-1,26,-1,28,30,-1,-1,32,34,36,38,40,42,-1,44,46,-1,48,50,-1,-1,52,54,-1,56,-1,58,60,-1,-1,-1,-1,-1,-1,-1,-1,-1,-1,-1,-1,-1,-1,-1,-1,-1,-1,-1,-1],"split_conditions":[1E0,1E0,2E0,3E0,4E-1,5.7E1,1E0,1.18E2,6E-1,1E0,-2.8788438E-2,1.43E2,1E0,2.2396598E-2,2.5E0,-2.0918556E-2,1E0,4.2E1,-2.8268717E-2,1.8303027E-2,2E-1,3E-1,1.95E2,6.3E1,2.46E2,2E0,-2.8509287E-2,3.04E2,1.45E2,-2.1990692E-2,2.27E2,1.1E2,3.7389265E-3,2.2094373E-2,1.3E0,1.12E2,-1.6537836E-3,1E0,2.7617771E-2,1.47E2,6.7E1,5.474566E-3,-1.8267425E-2,2.8150354E-2,-1.1121889E-2,-1.710201E-2,1.4724856E-2,2.2857852E-2,-3.8220633E-3,-3.2599764E-3,-2.7966138E-2,-1.6117156E-2,1.6297365E-2,1.7718693E-2,2.813502E-2,2.364788E-2,-1.734518E-2,2.6964588E-2,1.5329812E-3,-2.7901992E-2,-7.2250946E-4],"split_indices":[2,11,9,12,9,0,10,7,9,1,0,7,1,0,9,0,8,0,0,0,9,9,7,0,4,11,0,4,7,0,4,3,0,0,9,3,0,11,0,7,0,0,0,0,0,0,0,0,0,0,0,0,0,0,0,0,0,0,0,0,0],"split_type":[0,0,0,0,0,0,0,0,0,0,0,0,0,0,0,0,0,0,0,0,0,0,0,0,0,0,0,0,0,0,0,0,0,0,0,0,0,0,0,0,0,0,0,0,0,0,0,0,0,0,0,0,0,0,0,0,0,0,0,0,0],"sum_hessian":[1.8957518E2,9.161662E1,9.7958565E1,3.93051E1,5.231152E1,8.836747E1,9.59109E0,2.2544958E1,1.6760143E1,1.3488409E1,3.882311E1,5.37693E1,3.459817E1,2.1250758E0,7.466014E0,1.4584562E0,2.1086502E1,6.028389E0,1.0731754E1,1.2008379E0,1.2287571E1,6.596735E0,4.7172565E1,1.4228976E1,2.0369196E1,2.6329036E0,4.8331103E0,1.3359387E1,7.727114E0,1.9209623E0,4.1074266E0,1.0822953E1,1.464618E0,2.3176112E0,4.279124E0,4.572486E1,1.4477023E0,4.971392E0,9.257585E0,1.1903592E1,8.465605E0,1.4347334E0,1.1981702E0,1.2122502E1,1.2368845E0,3.1707854E0,4.556329E0,2.3633606E0,1.7440659E0,1.23814E0,9.584813E0,3.1450114E0,1.1341126E0,7.9966125E0,3.772825E1,3.0086195E0,1.9627726E0,4.0458684E0,7.857723E0,6.990132E0,1.4754726E0],"tree_param":{"num_deleted":"0","num_feature":"13","num_nodes":"61","size_leaf_vector":"1"}},{"base_weights":[-2.9259766E-3,-7.608131E-1,7.0575386E-1,-3.2609038E-2,-1.2979091E0,9.663152E-1,-2.5512088E-2,6.351773E-1,-9.1665435E-1,-8.641398E-1,-2.8465008E-2,1.2838145E0,4.718057E-1,-4.5995265E-1,7.065548E-1,-2.070813E-2,7.929532E-1,1.4670633E-2,-2.797037E-2,1.813948E-2,-1.0932559E0,-1.1037011E-2,1.3501714E0,1.1875035E0,-1.5980226E-1,-2.580334E-2,-1.5365963E-1,-2.1013954E-1,1.0378561E0,1.1860774E0,5.873143E-2,-8.4577173E-1,8.241352E-1,-1.2684685E0,3.693222E-3,1.4015595E0,-1.4561396E-3,4.023231E-1,2.7717687E-2,4.91512E-1,-1.192299E0,9.266014E-1,-5.9062994E-1,1.6315425E-2,-2.035395E-2,-5.2231746E-3,2.7282072E-2,2.7864186E-2,-1.1006077E-2,2.2629121E-2,-1.0235094E-2,-3.946995E-3,-2.1283938E-2,2.2163289E-2,1.5996771E-3,-3.2242294E-3,-2.7672201E-2,1.207367E-2,2.9220883E-2,-8.979218E-3,1.9947046E-2,2.188709E-2,-2.2111129E-2,-2.8609255E-2,-7.233585E-4,2.3107726E-2,3.6783672E-3,-1.7368283E-2,1.739542E-2],"categories":[],"categories_nodes":[],"categories_segments":[],"categories_sizes":[],"default_left":[0,0,0,0,0,0,0,0,0,0,0,0,0,0,0,0,0,0,0,0,0,0,0,0,0,0,0,0,0,0,0,0,0,0,0,0,0,0,0,0,0,0,0,0,0,0,0,0,0,0,0,0,0,0,0,0,0,0,0,0,0,0,0,0,0,0,0,0,0],"id":21,"left_children":[1,3,5,7,9,11,13,15,17,19,-1,21,23,25,27,-1,29,31,-1,-1,33,-1,35,37,39,-1,41,43,45,47,49,51,53,55,-1,57,-1,59,-1,61,63,65,67,-1,-1,-1,-1,-1,-1,-1,-1,-1,-1,-1,-1,-1,-1,-1,-1,-1,-1,-1,-1,-1,-1,-1,-1,-1,-1],"loss_changes":[1.0221271E2,3.5923878E1,1.8763702E1,2.4231926E1,1.6461334E0,1.0782967E1,8.851918E0,6.991952E0,7.940483E0,6.8366385E0,0E0,6.055153E0,1.3725254E1,4.234385E0,3.3703551E0,0E0,6.268342E0,5.5775256E0,0E0,0E0,3.191537E0,0E0,3.1997528E0,1.6473942E0,1.1875191E1,0E0,7.0939503E0,3.8019903E0,3.6586847E0,5.8914337E0,5.908874E0,3.4095144E-1,7.8154373E-1,1.2739811E0,0E0,1.0608444E0,0E0,2.6077607E0,0E0,1.180233E1,1.8166199E0,5.323372E-1,5.008943E0,0E0,0E0,0E0,0E0,0E0,0E0,0E0,0E0,0E0,0E0,0E0,0E0,0E0,0E0,0E0,0E0,0E0,0E0,0E0,0E0,0E0,0E0,0E0,0E0,0E0,0E0],"parents":[2147483647,0,0,1,1,2,2,3,3,4,4,5,5,6,6,7,7,8,8,9,9,11,11,12,12,13,13,14,14,16,16,17,17,20,20,22,22,23,23,24,24,26,26,27,27,28,28,29,29,30,30,31,31,32,32,33,33,35,35,37,37,39,39,40,40,41,41,42,42],"right_children":[2,4,6,8,10,12,14,16,18,20,-1,22,24,26,28,-1,30,32,-1,-1,34,-1,36,38,40,-1,42,44,46,48,50,52,54,56,-1,58,-1,60,-1,62,64,66,68,-1,-1,-1,-1,-1,-1,-1,-1,-1,-1,-1,-1,-1,-1,-1,-1,-1,-1,-1,-1,-1,-1,-1,-1,-1,-1],"split_conditions":[1E0,1E0,3E0,3E0,4E-1,5.6E1,2E0,1.18E2,6E-1,1E0,-2.8465008E-2,1.57E2,1E0,1.4E2,1E0,-2.070813E-2,1E0,4.9E1,-2.797037E-2,1.813948E-2,2E-1,-1.1037011E-2,1.5E2,2E0,1E0,-2.580334E-2,1.48E2,1.66E2,1.42E2,3.04E2,1E0,1.12E2,1.36E2,1.1E2,3.693222E-3,1.1E2,-1.4561396E-3,1.38E2,2.7717687E-2,2.46E2,6.6E1,6E1,2.89E2,1.6315425E-2,-2.035395E-2,-5.2231746E-3,2.7282072E-2,2.7864186E-2,-1.1006077E-2,2.2629121E-2,-1.0235094E-2,-3.946995E-3,-2.1283938E-2,2.2163289E-2,1.5996771E-3,-3.2242294E-3,-2.7672201E-2,1.207367E-2,2.9220883E-2,-8.979218E-3,1.9947046E-2,2.188709E-2,-2.2111129E-2,-2.8609255E-2,-7.233585E-4,2.3107726E-2,3.6783672E-3,-1.7368283E-2,1.739542E-2],"split_indices":[2,11,12,12,9,0,10,7,9,1,0,4,1,7,6,0,8,0,0,0,9,0,3,2,11,0,7,7,7,4,6,3,3,3,0,3,0,3,0,4,0,0,4,0,0,0,0,0,0,0,0,0,0,0,0,0,0,0,0,0,0,0,0,0,0,0,0,0,0],"split_type":[0,0,0,0,0,0,0,0,0,0,0,0,0,0,0,0,0,0,0,0,0,0,0,0,0,0,0,0,0,0,0,0,0,0,0,0,0,0,0,0,0,0,0,0,0,0,0,0,0,0,0,0,0,0,0,0,0,0,0,0,0,0,0,0,0,0,0,0,0],"sum_hessian":[1.8830531E2,9.095803E1,9.7347275E1,3.9060223E1,5.189781E1,7.153635E1,2.5810932E1,2.2412144E1,1.6648077E1,1.3404188E1,3.849362E1,4.259325E1,2.8943094E1,1.6431479E1,9.379454E0,1.4540163E0,2.0958126E1,6.007197E0,1.0640881E1,1.196491E0,1.2207697E1,1.230723E0,4.1362526E1,1.3155732E1,1.5787361E1,3.5626454E0,1.2868834E1,2.587018E0,6.792435E0,1.3248867E1,7.70926E0,2.8901644E0,3.1170325E0,1.0742243E1,1.4654543E0,3.9935394E1,1.4271331E0,3.264211E0,9.891521E0,1.0001945E1,5.785417E0,3.3835757E0,9.485258E0,1.134982E0,1.452036E0,1.4035299E0,5.3889055E0,1.2013429E1,1.2354385E0,2.3350966E0,5.374163E0,1.2078942E0,1.6822703E0,1.9019332E0,1.2150992E0,1.2379205E0,9.504322E0,3.5442667E0,3.639113E1,1.4439259E0,1.8202851E0,7.4896226E0,2.5123215E0,4.6004386E0,1.1849784E0,2.1619043E0,1.2216713E0,8.30997E0,1.175288E0],"tree_param":{"num_deleted":"0","num_feature":"13","num_nodes":"69","size_leaf_vector":"1"}},{"base_weights":[-2.8876169E-3,-7.51734E-1,6.9672966E-1,-3.26677E-2,-1.2830361E0,8.404169E-1,-5.754955E-1,6.264977E-1,-9.056196E-1,-7.6259476E-1,-1.3813533E0,1.1479232E0,3.459103E-1,2.1917023E-2,-1.1235529E0,-2.0502228E-2,7.8311974E-1,1.4201819E-2,-2.7682189E-2,1.7978901E-2,-1.0696332E0,-9.158811E-3,-1.4090787E0,2.6239443E-1,1.2643827E0,1.0498768E0,-1.6876365E-1,-2.805356E-2,-7.3239575E-3,1.1729167E0,5.910905E-2,-2.1620259E-2,6.372388E-1,-1.0393581E-3,-2.6310146E-2,-8.5466427E-1,-2.9462487E-2,2.1596E-2,-2.9918206E-1,1.3084762E0,-1.6837202E-3,3.4995133E-1,2.7117645E-2,5.7093656E-1,-1.1647077E0,2.7587645E-2,-1.0891826E-2,-1.6739005E-2,1.4432088E-2,2.252253E-2,-3.8255684E-3,5.952557E-3,-2.4396243E-2,1.6090585E-2,-1.5906278E-2,1.7243939E-2,2.757505E-2,2.3132069E-2,-1.7028755E-2,2.6482122E-2,1.5987597E-3,-2.7388096E-2,-7.7213254E-4],"categories":[],"categories_nodes":[],"categories_segments":[],"categories_sizes":[],"default_left":[0,0,0,0,0,0,0,0,0,0,0,0,0,0,0,0,0,0,0,0,0,0,0,0,0,0,0,0,0,0,0,0,0,0,0,0,0,0,0,0,0,0,0,0,0,0,0,0,0,0,0,0,0,0,0,0,0,0,0,0,0,0,0],"id":22,"left_children":[1,3,5,7,9,11,13,15,17,19,21,23,25,-1,27,-1,29,31,-1,-1,33,-1,35,37,39,41,43,-1,-1,45,47,-1,49,-1,-1,51,-1,-1,53,55,-1,57,-1,59,61,-1,-1,-1,-1,-1,-1,-1,-1,-1,-1,-1,-1,-1,-1,-1,-1,-1,-1],"loss_changes":[9.902471E1,3.483555E1,1.8347183E1,2.3479282E1,1.6316223E0,1.3016487E1,1.0858565E1,6.824298E0,7.7393494E0,6.3540854E0,4.5316315E-1,5.232765E0,1.2949682E1,0E0,1.263895E0,0E0,6.09109E0,5.459781E0,0E0,0E0,2.278266E0,0E0,2.0291138E-1,3.781093E0,2.930153E0,2.7439823E0,1.6301989E1,0E0,0E0,5.764002E0,5.7640586E0,0E0,2.2753808E0,0E0,0E0,3.1592202E0,0E0,0E0,3.5138369E0,2.534027E-1,0E0,6.7209835E0,0E0,4.6464353E0,2.1081553E0,0E0,0E0,0E0,0E0,0E0,0E0,0E0,0E0,0E0,0E0,0E0,0E0,0E0,0E0,0E0,0E0,0E0,0E0],"parents":[2147483647,0,0,1,1,2,2,3,3,4,4,5,5,6,6,7,7,8,8,9,9,10,10,11,11,12,12,14,14,16,16,17,17,20,20,22,22,23,23,24,24,25,25,26,26,29,29,30,30,32,32,35,35,38,38,39,39,41,41,43,43,44,44],"right_children":[2,4,6,8,10,12,14,16,18,20,22,24,26,-1,28,-1,30,32,-1,-1,34,-1,36,38,40,42,44,-1,-1,46,48,-1,50,-1,-1,52,-1,-1,54,56,-1,58,-1,60,62,-1,-1,-1,-1,-1,-1,-1,-1,-1,-1,-1,-1,-1,-1,-1,-1,-1,-1],"split_conditions":[1E0,1E0,2E0,3E0,1E0,5.7E1,1E0,1.18E2,6E-1,4E-1,1.1E2,1.43E2,1E0,2.1917023E-2,1.66E2,-2.0502228E-2,1E0,4.2E1,-2.7682189E-2,1.7978901E-2,1.23E2,-9.158811E-3,1.06E2,3E-1,1.95E2,6.3E1,2.46E2,-2.805356E-2,-7.3239575E-3,3.04E2,1.45E2,-2.1620259E-2,2.27E2,-1.0393581E-3,-2.6310146E-2,1.1E0,-2.9462487E-2,2.1596E-2,1.26E2,1.12E2,-1.6837202E-3,1E0,2.7117645E-2,1.47E2,6.7E1,2.7587645E-2,-1.0891826E-2,-1.6739005E-2,1.4432088E-2,2.252253E-2,-3.8255684E-3,5.952557E-3,-2.4396243E-2,1.6090585E-2,-1.5906278E-2,1.7243939E-2,2.757505E-2,2.3132069E-2,-1.7028755E-2,2.6482122E-2,1.5987597E-3,-2.7388096E-2,-7.7213254E-4],"split_indices":[2,11,9,12,1,0,10,7,9,9,3,7,1,0,7,0,8,0,0,0,7,0,7,9,7,0,4,0,0,4,7,0,4,0,0,9,0,0,7,3,0,11,0,7,0,0,0,0,0,0,0,0,0,0,0,0,0,0,0,0,0,0,0],"split_type":[0,0,0,0,0,0,0,0,0,0,0,0,0,0,0,0,0,0,0,0,0,0,0,0,0,0,0,0,0,0,0,0,0,0,0,0,0,0,0,0,0,0,0,0,0,0,0,0,0,0,0,0,0,0,0,0,0,0,0,0,0,0,0],"sum_hessian":[1.8701268E2,9.029235E1,9.672034E1,3.881775E1,5.1474606E1,8.721009E1,9.510242E0,2.2277983E1,1.6539766E1,9.570372E0,4.1904232E1,5.295744E1,3.425265E1,2.1016295E0,7.4086127E0,1.4493362E0,2.0828646E1,5.9917974E0,1.0547968E1,1.1920104E0,8.378362E0,1.7321174E0,4.0172115E1,6.5332603E0,4.642418E1,1.4026898E1,2.0225754E1,4.7908564E0,2.6177564E0,1.31362505E1,7.692395E0,1.9060858E0,4.0857115E0,1.8660783E0,6.5122833E0,5.6455684E0,3.4526546E1,2.2848027E0,4.2484574E0,4.4983116E1,1.4410629E0,4.9190893E0,9.107808E0,1.1850773E1,8.37498E0,1.1902316E1,1.2339348E0,3.157875E0,4.53452E0,2.3436022E0,1.7421093E0,1.4030128E0,4.2425556E0,1.1247338E0,3.1237237E0,7.9250264E0,3.705809E1,2.9653406E0,1.953749E0,4.0071797E0,7.8435936E0,6.903955E0,1.4710252E0],"tree_param":{"num_deleted":"0","num_feature":"13","num_nodes":"63","size_leaf_vector":"1"}},{"base_weights":[-2.9478564E-3,-7.434252E-1,6.881603E-1,-3.3142846E-2,-1.2690178E0,9.4554687E-1,-2.8792406E-2,6.1743325E-1,-8.952948E-1,-8.386285E-1,-2.78789E-2,1.258423E0,4.6008632E-1,-4.5415083E-1,6.907886E-1,-2.0300694E-2,7.729045E-1,1.3550064E-2,-2.7403645E-2,1.7821198E-2,-1.0645976E0,-1.0833182E-2,1.3244394E0,1.162936E0,-1.5727022E-1,-2.5256446E-2,-1.5647401E-1,-2.1523544E-1,1.0196807E0,1.1601465E0,5.7786245E-2,-8.309703E-1,8.082551E-1,2.9832663E-3,-1.2501365E0,1.3754916E0,-1.462441E-3,3.70072E-1,2.7050618E-2,4.8417225E-1,-1.1698681E0,9.0573037E-1,-5.8423233E-1,1.5967842E-2,-2.0113915E-2,-5.0845295E-3,2.6805464E-2,2.7320236E-2,-1.07791005E-2,2.2257103E-2,-1.0018953E-2,-3.8686688E-3,-2.0915568E-2,2.1832831E-2,1.4568977E-3,-3.088513E-3,-2.7363684E-2,1.1682132E-2,2.8708603E-2,-4.9671046E-3,1.821604E-2,2.1466885E-2,-2.1640377E-2,-2.8093407E-2,-6.674585E-4,2.2592232E-2,3.5961338E-3,-1.7106153E-2,1.7018585E-2],"categories":[],"categories_nodes":[],"categories_segments":[],"categories_sizes":[],"default_left":[0,0,0,0,0,0,0,0,0,0,0,0,0,0,0,0,0,0,0,0,0,0,0,0,0,0,0,0,0,0,0,0,0,0,0,0,0,0,0,0,0,0,0,0,0,0,0,0,0,0,0,0,0,0,0,0,0,0,0,0,0,0,0,0,0,0,0,0,0],"id":23,"left_children":[1,3,5,7,9,11,13,15,17,19,-1,21,23,25,27,-1,29,31,-1,-1,33,-1,35,37,39,-1,41,43,45,47,49,51,53,-1,55,57,-1,59,-1,61,63,65,67,-1,-1,-1,-1,-1,-1,-1,-1,-1,-1,-1,-1,-1,-1,-1,-1,-1,-1,-1,-1,-1,-1,-1,-1,-1,-1],"loss_changes":[9.6056786E1,3.378546E1,1.7943634E1,2.2743286E1,1.6295929E0,1.0276798E1,8.461036E0,6.657461E0,7.538224E0,6.5064783E0,0E0,5.813629E0,1.3020874E1,3.9747539E0,3.2844338E0,0E0,5.940936E0,5.3492374E0,0E0,0E0,3.1213455E0,0E0,3.0728226E0,1.5971546E0,1.1369459E1,0E0,6.8041825E0,3.6593819E0,3.493864E0,5.640829E0,5.6706424E0,3.279698E-1,7.744458E-1,0E0,1.2646694E0,1.070343E0,0E0,1.5870954E0,0E0,1.1209723E1,1.7524414E0,5.0499225E-1,4.794594E0,0E0,0E0,0E0,0E0,0E0,0E0,0E0,0E0,0E0,0E0,0E0,0E0,0E0,0E0,0E0,0E0,0E0,0E0,0E0,0E0,0E0,0E0,0E0,0E0,0E0,0E0],"parents":[2147483647,0,0,1,1,2,2,3,3,4,4,5,5,6,6,7,7,8,8,9,9,11,11,12,12,13,13,14,14,16,16,17,17,20,20,22,22,23,23,24,24,26,26,27,27,28,28,29,29,30,30,31,31,32,32,34,34,35,35,37,37,39,39,40,40,41,41,42,42],"right_children":[2,4,6,8,10,12,14,16,18,20,-1,22,24,26,28,-1,30,32,-1,-1,34,-1,36,38,40,-1,42,44,46,48,50,52,54,-1,56,58,-1,60,-1,62,64,66,68,-1,-1,-1,-1,-1,-1,-1,-1,-1,-1,-1,-1,-1,-1,-1,-1,-1,-1,-1,-1,-1,-1,-1,-1,-1,-1],"split_conditions":[1E0,1E0,3E0,3E0,4E-1,5.6E1,2E0,1.18E2,6E-1,1E0,-2.78789E-2,1.57E2,1E0,1.4E2,1E0,-2.0300694E-2,1E0,4.9E1,-2.7403645E-2,1.7821198E-2,1.09E2,-1.0833182E-2,2.5E0,5.9E1,1E0,-2.5256446E-2,1.48E2,1.66E2,1.42E2,3.04E2,1E0,1.12E2,1.36E2,2.9832663E-3,1.1E2,1.1E2,-1.462441E-3,2E0,2.7050618E-2,2.46E2,6.6E1,6E1,2.89E2,1.5967842E-2,-2.0113915E-2,-5.0845295E-3,2.6805464E-2,2.7320236E-2,-1.07791005E-2,2.2257103E-2,-1.0018953E-2,-3.8686688E-3,-2.0915568E-2,2.1832831E-2,1.4568977E-3,-3.088513E-3,-2.7363684E-2,1.1682132E-2,2.8708603E-2,-4.9671046E-3,1.821604E-2,2.1466885E-2,-2.1640377E-2,-2.8093407E-2,-6.674585E-4,2.2592232E-2,3.5961338E-3,-1.7106153E-2,1.7018585E-2],"split_indices":[2,11,12,12,9,0,10,7,9,1,0,4,1,7,6,0,8,0,0,0,7,0,9,0,11,0,7,7,7,4,6,3,3,0,3,3,0,2,0,4,0,0,4,0,0,0,0,0,0,0,0,0,0,0,0,0,0,0,0,0,0,0,0,0,0,0,0,0,0],"split_type":[0,0,0,0,0,0,0,0,0,0,0,0,0,0,0,0,0,0,0,0,0,0,0,0,0,0,0,0,0,0,0,0,0,0,0,0,0,0,0,0,0,0,0,0,0,0,0,0,0,0,0,0,0,0,0,0,0,0,0,0,0,0,0,0,0,0,0,0,0],"sum_hessian":[1.857029E2,8.9612854E1,9.609004E1,3.856263E1,5.1050224E1,7.047178E1,2.5618263E1,2.2139847E1,1.6422785E1,1.3219698E1,3.783053E1,4.1884968E1,2.8586811E1,1.6332607E1,9.285656E0,1.4444265E0,2.069542E1,5.9695888E0,1.0453197E1,1.1874027E0,1.2032295E1,1.2268656E0,4.06581E1,1.2954549E1,1.5632262E1,3.5221214E0,1.2810486E1,2.5650613E0,6.7205944E0,1.3021737E1,7.673683E0,2.8719645E0,3.0976243E0,1.6214068E0,1.0410888E1,3.9240456E1,1.4176446E0,3.0696292E0,9.884919E0,9.889494E0,5.7427692E0,3.3570101E0,9.453476E0,1.119484E0,1.4455773E0,1.3928747E0,5.3277197E0,1.1789361E1,1.232376E0,2.3134336E0,5.3602495E0,1.2027558E0,1.6692085E0,1.8863364E0,1.2112879E0,1.2370288E0,9.17386E0,3.5192986E0,3.5721157E1,1.6841679E0,1.3854613E0,7.4148455E0,2.4746482E0,4.5638924E0,1.1788766E0,2.1406977E0,1.2163123E0,8.291415E0,1.1620605E0],"tree_param":{"num_deleted":"0","num_feature":"13","num_nodes":"69","size_leaf_vector":"1"}},{"base_weights":[-2.9026277E-3,-7.3482573E-1,6.7961305E-1,-3.319887E-2,-1.2549565E0,8.213171E-1,-5.669933E-1,6.091809E-1,-8.8484746E-1,-7.379446E-1,-1.3530955E0,1.1230024E0,3.384584E-1,2.1552831E-2,-1.1061428E0,-2.0103373E-2,7.635623E-1,1.3098147E-2,-2.7134243E-2,1.766629E-2,-1.0406786E0,-8.923918E-3,-1.3808304E0,2.5355887E-1,1.2380869E0,1.0276681E0,-1.6207285E-1,-3.52922E-1,-2.768022E-2,1.1477472E0,5.8174927E-2,-2.1264734E-2,6.249724E-1,-6.6656515E-4,-2.577528E-2,-8.301456E-1,-2.889835E-2,2.1122176E-2,-2.9516986E-1,1.2819628E0,-1.7114064E-3,3.383114E-1,2.6621606E-2,5.6247175E-1,-1.1435206E0,5.40261E-3,-1.7639542E-2,2.7061502E-2,-1.0667865E-2,2.2037722E-2,-9.856418E-3,2.2200674E-2,-3.828444E-3,6.0295523E-3,-2.3896664E-2,-1.5575921E-2,1.5740674E-2,1.6787572E-2,2.704989E-2,2.2686478E-2,-1.6746849E-2,2.6024567E-2,1.6633394E-3,-2.690351E-2,-8.197113E-4],"categories":[],"categories_nodes":[],"categories_segments":[],"categories_sizes":[],"default_left":[0,0,0,0,0,0,0,0,0,0,0,0,0,0,0,0,0,0,0,0,0,0,0,0,0,0,0,0,0,0,0,0,0,0,0,0,0,0,0,0,0,0,0,0,0,0,0,0,0,0,0,0,0,0,0,0,0,0,0,0,0,0,0,0,0],"id":24,"left_children":[1,3,5,7,9,11,13,15,17,19,21,23,25,-1,27,-1,29,31,-1,-1,33,-1,35,37,39,41,43,45,-1,47,49,-1,51,-1,-1,53,-1,-1,55,57,-1,59,-1,61,63,-1,-1,-1,-1,-1,-1,-1,-1,-1,-1,-1,-1,-1,-1,-1,-1,-1,-1,-1,-1],"loss_changes":[9.309908E1,3.277583E1,1.750177E1,2.2045303E1,1.6203995E0,1.2294067E1,1.0444957E1,6.4999046E0,7.352191E0,6.040435E0,4.4485474E-1,5.0009384E0,1.2201901E1,0E0,1.2596684E0,0E0,5.776389E0,5.2438145E0,0E0,0E0,2.2690744E0,0E0,2.2814178E-1,3.5998743E0,2.8190002E0,2.6481266E0,1.5629103E1,1.4226578E0,0E0,5.521698E0,5.5209446E0,0E0,2.2174218E0,0E0,0E0,3.0704603E0,0E0,0E0,3.3429506E0,2.7622986E-1,0E0,6.441491E0,0E0,4.4220567E0,2.0081081E0,0E0,0E0,0E0,0E0,0E0,0E0,0E0,0E0,0E0,0E0,0E0,0E0,0E0,0E0,0E0,0E0,0E0,0E0,0E0,0E0],"parents":[2147483647,0,0,1,1,2,2,3,3,4,4,5,5,6,6,7,7,8,8,9,9,10,10,11,11,12,12,14,14,16,16,17,17,20,20,22,22,23,23,24,24,25,25,26,26,27,27,29,29,30,30,32,32,35,35,38,38,39,39,41,41,43,43,44,44],"right_children":[2,4,6,8,10,12,14,16,18,20,22,24,26,-1,28,-1,30,32,-1,-1,34,-1,36,38,40,42,44,46,-1,48,50,-1,52,-1,-1,54,-1,-1,56,58,-1,60,-1,62,64,-1,-1,-1,-1,-1,-1,-1,-1,-1,-1,-1,-1,-1,-1,-1,-1,-1,-1,-1,-1],"split_conditions":[1E0,1E0,2E0,3E0,1E0,5.7E1,1E0,1.18E2,6E-1,4E-1,1.1E2,1.43E2,1E0,2.1552831E-2,2.5E0,-2.0103373E-2,1E0,4.2E1,-2.7134243E-2,1.766629E-2,1.23E2,-8.923918E-3,1.06E2,3E-1,1.95E2,6.3E1,2.46E2,2E0,-2.768022E-2,3.04E2,1E0,-2.1264734E-2,2.27E2,-6.6656515E-4,-2.577528E-2,1.1E0,-2.889835E-2,2.1122176E-2,1.3E0,1.12E2,-1.7114064E-3,1E0,2.6621606E-2,1.47E2,6.7E1,5.40261E-3,-1.7639542E-2,2.7061502E-2,-1.0667865E-2,2.2037722E-2,-9.856418E-3,2.2200674E-2,-3.828444E-3,6.0295523E-3,-2.3896664E-2,-1.5575921E-2,1.5740674E-2,1.6787572E-2,2.704989E-2,2.2686478E-2,-1.6746849E-2,2.6024567E-2,1.6633394E-3,-2.690351E-2,-8.197113E-4],"split_indices":[2,11,9,12,1,0,10,7,9,9,3,7,1,0,9,0,8,0,0,0,7,0,7,9,7,0,4,11,0,4,6,0,4,0,0,9,0,0,9,3,0,11,0,7,0,0,0,0,0,0,0,0,0,0,0,0,0,0,0,0,0,0,0,0,0],"split_type":[0,0,0,0,0,0,0,0,0,0,0,0,0,0,0,0,0,0,0,0,0,0,0,0,0,0,0,0,0,0,0,0,0,0,0,0,0,0,0,0,0,0,0,0,0,0,0,0,0,0,0,0,0,0,0,0,0,0,0,0,0,0,0,0,0],"sum_hessian":[1.8436656E2,8.892627E1,9.54403E1,3.8310886E1,5.0615383E1,8.6005104E1,9.435199E0,2.200084E1,1.6310047E1,9.434151E0,4.1181232E1,5.211711E1,3.388799E1,2.0828476E0,7.3523507E0,1.4392986E0,2.056154E1,5.953308E0,1.0356738E1,1.1826744E0,8.251476E0,1.7291147E0,